digraph Tree {
node [shape=box, style="filled, rounded", color="black", fontname="helvetica"] ;
edge [fontname="helvetica"] ;
0 [label=<previous_loan_defaults_on_file &le; 0.5<br/>gini = 0.5<br/>samples = 55990<br/>value = [27995, 27995]<br/>class = Refused>, fillcolor="#ffffff"] ;
1 [label=<home_RENT &le; 0.0<br/>gini = 0.383<br/>samples = 37710<br/>value = [9715, 27995]<br/>class = Accepted>, fillcolor="#7ebfee"] ;
0 -> 1 [labeldistance=2.5, labelangle=45, headlabel="True"] ;
2 [label=<loan_int_rate &le; 13.581<br/>gini = 0.489<br/>samples = 9322<br/>value = [5340, 3982]<br/>class = Refused>, fillcolor="#f8dfcd"] ;
1 -> 2 ;
3 [label=<person_income &le; 24759.876<br/>gini = 0.412<br/>samples = 6598<br/>value = [4683.0, 1915.0]<br/>class = Refused>, fillcolor="#f0b58a"] ;
2 -> 3 ;
4 [label=<loan_percent_income &le; 0.114<br/>gini = 0.073<br/>samples = 289<br/>value = [11, 278]<br/>class = Accepted>, fillcolor="#41a1e6"] ;
3 -> 4 ;
5 [label=<loan_amnt &le; 2150.0<br/>gini = 0.198<br/>samples = 9<br/>value = [8, 1]<br/>class = Refused>, fillcolor="#e89152"] ;
4 -> 5 ;
6 [label=<gini = 0.0<br/>samples = 7<br/>value = [7, 0]<br/>class = Refused>, fillcolor="#e58139"] ;
5 -> 6 ;
7 [label=<loan_int_rate &le; 10.8<br/>gini = 0.5<br/>samples = 2<br/>value = [1, 1]<br/>class = Refused>, fillcolor="#ffffff"] ;
5 -> 7 ;
8 [label=<gini = 0.0<br/>samples = 1<br/>value = [1, 0]<br/>class = Refused>, fillcolor="#e58139"] ;
7 -> 8 ;
9 [label=<gini = 0.0<br/>samples = 1<br/>value = [0, 1]<br/>class = Accepted>, fillcolor="#399de5"] ;
7 -> 9 ;
10 [label=<loan_percent_income &le; 0.12<br/>gini = 0.021<br/>samples = 280<br/>value = [3, 277]<br/>class = Accepted>, fillcolor="#3b9ee5"] ;
4 -> 10 ;
11 [label=<home_MORTGAGE &le; 0.3<br/>gini = 0.469<br/>samples = 8<br/>value = [3, 5]<br/>class = Accepted>, fillcolor="#b0d8f5"] ;
10 -> 11 ;
12 [label=<person_education &le; 3.5<br/>gini = 0.375<br/>samples = 4<br/>value = [3, 1]<br/>class = Refused>, fillcolor="#eeab7b"] ;
11 -> 12 ;
13 [label=<gini = 0.0<br/>samples = 3<br/>value = [3, 0]<br/>class = Refused>, fillcolor="#e58139"] ;
12 -> 13 ;
14 [label=<gini = 0.0<br/>samples = 1<br/>value = [0, 1]<br/>class = Accepted>, fillcolor="#399de5"] ;
12 -> 14 ;
15 [label=<gini = 0.0<br/>samples = 4<br/>value = [0, 4]<br/>class = Accepted>, fillcolor="#399de5"] ;
11 -> 15 ;
16 [label=<gini = 0.0<br/>samples = 272<br/>value = [0, 272]<br/>class = Accepted>, fillcolor="#399de5"] ;
10 -> 16 ;
17 [label=<loan_int_rate &le; 11.023<br/>gini = 0.384<br/>samples = 6309<br/>value = [4672.0, 1637.0]<br/>class = Refused>, fillcolor="#eead7e"] ;
3 -> 17 ;
18 [label=<loan_int_rate &le; 8.125<br/>gini = 0.29<br/>samples = 4169<br/>value = [3437, 732]<br/>class = Refused>, fillcolor="#eb9c63"] ;
17 -> 18 ;
19 [label=<person_income &le; 72799.0<br/>gini = 0.163<br/>samples = 1827<br/>value = [1664, 163]<br/>class = Refused>, fillcolor="#e88d4c"] ;
18 -> 19 ;
20 [label=<intent_VENTURE &le; 0.5<br/>gini = 0.272<br/>samples = 787<br/>value = [659, 128]<br/>class = Refused>, fillcolor="#ea995f"] ;
19 -> 20 ;
21 [label=<home_OWN &le; 0.5<br/>gini = 0.317<br/>samples = 649<br/>value = [521, 128]<br/>class = Refused>, fillcolor="#eba06a"] ;
20 -> 21 ;
22 [label=<credit_score &le; 673.862<br/>gini = 0.355<br/>samples = 554<br/>value = [426, 128]<br/>class = Refused>, fillcolor="#eda774"] ;
21 -> 22 ;
23 [label=<loan_percent_income &le; 0.315<br/>gini = 0.404<br/>samples = 392<br/>value = [282.0, 110.0]<br/>class = Refused>, fillcolor="#efb286"] ;
22 -> 23 ;
24 [label=<person_emp_exp &le; 4.013<br/>gini = 0.387<br/>samples = 378<br/>value = [279, 99]<br/>class = Refused>, fillcolor="#eeae7f"] ;
23 -> 24 ;
25 [label=<gini = 0.299<br/>samples = 230<br/>value = [188, 42]<br/>class = Refused>, fillcolor="#eb9d65"] ;
24 -> 25 ;
26 [label=<gini = 0.474<br/>samples = 148<br/>value = [91, 57]<br/>class = Refused>, fillcolor="#f5d0b5"] ;
24 -> 26 ;
27 [label=<person_emp_exp &le; 3.5<br/>gini = 0.337<br/>samples = 14<br/>value = [3, 11]<br/>class = Accepted>, fillcolor="#6fb8ec"] ;
23 -> 27 ;
28 [label=<gini = 0.165<br/>samples = 11<br/>value = [1, 10]<br/>class = Accepted>, fillcolor="#4da7e8"] ;
27 -> 28 ;
29 [label=<gini = 0.444<br/>samples = 3<br/>value = [2, 1]<br/>class = Refused>, fillcolor="#f2c09c"] ;
27 -> 29 ;
30 [label=<person_income &le; 72726.5<br/>gini = 0.198<br/>samples = 162<br/>value = [144, 18]<br/>class = Refused>, fillcolor="#e89152"] ;
22 -> 30 ;
31 [label=<loan_amnt &le; 23125.0<br/>gini = 0.18<br/>samples = 160<br/>value = [144, 16]<br/>class = Refused>, fillcolor="#e88f4f"] ;
30 -> 31 ;
32 [label=<gini = 0.162<br/>samples = 158<br/>value = [144, 14]<br/>class = Refused>, fillcolor="#e88d4c"] ;
31 -> 32 ;
33 [label=<gini = 0.0<br/>samples = 2<br/>value = [0, 2]<br/>class = Accepted>, fillcolor="#399de5"] ;
31 -> 33 ;
34 [label=<gini = 0.0<br/>samples = 2<br/>value = [0, 2]<br/>class = Accepted>, fillcolor="#399de5"] ;
30 -> 34 ;
35 [label=<gini = 0.0<br/>samples = 95<br/>value = [95, 0]<br/>class = Refused>, fillcolor="#e58139"] ;
21 -> 35 ;
36 [label=<gini = 0.0<br/>samples = 138<br/>value = [138, 0]<br/>class = Refused>, fillcolor="#e58139"] ;
20 -> 36 ;
37 [label=<loan_percent_income &le; 0.165<br/>gini = 0.065<br/>samples = 1040<br/>value = [1005, 35]<br/>class = Refused>, fillcolor="#e68540"] ;
19 -> 37 ;
38 [label=<loan_amnt &le; 2262.5<br/>gini = 0.05<br/>samples = 943<br/>value = [919, 24]<br/>class = Refused>, fillcolor="#e6843e"] ;
37 -> 38 ;
39 [label=<loan_amnt &le; 2147.445<br/>gini = 0.172<br/>samples = 42<br/>value = [38, 4]<br/>class = Refused>, fillcolor="#e88e4e"] ;
38 -> 39 ;
40 [label=<person_education &le; 1.5<br/>gini = 0.05<br/>samples = 39<br/>value = [38, 1]<br/>class = Refused>, fillcolor="#e6843e"] ;
39 -> 40 ;
41 [label=<loan_int_rate &le; 6.82<br/>gini = 0.219<br/>samples = 8<br/>value = [7, 1]<br/>class = Refused>, fillcolor="#e99355"] ;
40 -> 41 ;
42 [label=<gini = 0.0<br/>samples = 1<br/>value = [0, 1]<br/>class = Accepted>, fillcolor="#399de5"] ;
41 -> 42 ;
43 [label=<gini = 0.0<br/>samples = 7<br/>value = [7, 0]<br/>class = Refused>, fillcolor="#e58139"] ;
41 -> 43 ;
44 [label=<gini = 0.0<br/>samples = 31<br/>value = [31, 0]<br/>class = Refused>, fillcolor="#e58139"] ;
40 -> 44 ;
45 [label=<gini = 0.0<br/>samples = 3<br/>value = [0, 3]<br/>class = Accepted>, fillcolor="#399de5"] ;
39 -> 45 ;
46 [label=<intent_DEBTCONSOLIDATION &le; 0.421<br/>gini = 0.043<br/>samples = 901<br/>value = [881, 20]<br/>class = Refused>, fillcolor="#e6843d"] ;
38 -> 46 ;
47 [label=<credit_score &le; 741.0<br/>gini = 0.029<br/>samples = 758<br/>value = [747, 11]<br/>class = Refused>, fillcolor="#e5833c"] ;
46 -> 47 ;
48 [label=<intent_PERSONAL &le; 0.466<br/>gini = 0.026<br/>samples = 754<br/>value = [744, 10]<br/>class = Refused>, fillcolor="#e5833c"] ;
47 -> 48 ;
49 [label=<gini = 0.013<br/>samples = 595<br/>value = [591, 4]<br/>class = Refused>, fillcolor="#e5823a"] ;
48 -> 49 ;
50 [label=<gini = 0.073<br/>samples = 159<br/>value = [153, 6]<br/>class = Refused>, fillcolor="#e68641"] ;
48 -> 50 ;
51 [label=<person_income &le; 104498.5<br/>gini = 0.375<br/>samples = 4<br/>value = [3, 1]<br/>class = Refused>, fillcolor="#eeab7b"] ;
47 -> 51 ;
52 [label=<gini = 0.0<br/>samples = 1<br/>value = [0, 1]<br/>class = Accepted>, fillcolor="#399de5"] ;
51 -> 52 ;
53 [label=<gini = 0.0<br/>samples = 3<br/>value = [3, 0]<br/>class = Refused>, fillcolor="#e58139"] ;
51 -> 53 ;
54 [label=<intent_VENTURE &le; 0.079<br/>gini = 0.118<br/>samples = 143<br/>value = [134, 9]<br/>class = Refused>, fillcolor="#e78946"] ;
46 -> 54 ;
55 [label=<person_income &le; 95689.0<br/>gini = 0.106<br/>samples = 142<br/>value = [134, 8]<br/>class = Refused>, fillcolor="#e78945"] ;
54 -> 55 ;
56 [label=<gini = 0.211<br/>samples = 50<br/>value = [44, 6]<br/>class = Refused>, fillcolor="#e99254"] ;
55 -> 56 ;
57 [label=<gini = 0.043<br/>samples = 92<br/>value = [90, 2]<br/>class = Refused>, fillcolor="#e6843d"] ;
55 -> 57 ;
58 [label=<gini = 0.0<br/>samples = 1<br/>value = [0, 1]<br/>class = Accepted>, fillcolor="#399de5"] ;
54 -> 58 ;
59 [label=<loan_int_rate &le; 5.5<br/>gini = 0.201<br/>samples = 97<br/>value = [86, 11]<br/>class = Refused>, fillcolor="#e89152"] ;
37 -> 59 ;
60 [label=<gini = 0.0<br/>samples = 1<br/>value = [0, 1]<br/>class = Accepted>, fillcolor="#399de5"] ;
59 -> 60 ;
61 [label=<person_income &le; 158830.5<br/>gini = 0.187<br/>samples = 96<br/>value = [86, 10]<br/>class = Refused>, fillcolor="#e89050"] ;
59 -> 61 ;
62 [label=<intent_EDUCATION &le; 0.356<br/>gini = 0.172<br/>samples = 95<br/>value = [86, 9]<br/>class = Refused>, fillcolor="#e88e4e"] ;
61 -> 62 ;
63 [label=<loan_amnt &le; 14662.5<br/>gini = 0.083<br/>samples = 69<br/>value = [66, 3]<br/>class = Refused>, fillcolor="#e68742"] ;
62 -> 63 ;
64 [label=<gini = 0.444<br/>samples = 9<br/>value = [6, 3]<br/>class = Refused>, fillcolor="#f2c09c"] ;
63 -> 64 ;
65 [label=<gini = 0.0<br/>samples = 60<br/>value = [60, 0]<br/>class = Refused>, fillcolor="#e58139"] ;
63 -> 65 ;
66 [label=<intent_EDUCATION &le; 0.923<br/>gini = 0.355<br/>samples = 26<br/>value = [20, 6]<br/>class = Refused>, fillcolor="#eda774"] ;
62 -> 66 ;
67 [label=<gini = 0.0<br/>samples = 2<br/>value = [0, 2]<br/>class = Accepted>, fillcolor="#399de5"] ;
66 -> 67 ;
68 [label=<gini = 0.278<br/>samples = 24<br/>value = [20, 4]<br/>class = Refused>, fillcolor="#ea9a61"] ;
66 -> 68 ;
69 [label=<gini = 0.0<br/>samples = 1<br/>value = [0, 1]<br/>class = Accepted>, fillcolor="#399de5"] ;
61 -> 69 ;
70 [label=<intent_MEDICAL &le; 0.001<br/>gini = 0.368<br/>samples = 2342<br/>value = [1773, 569]<br/>class = Refused>, fillcolor="#eda979"] ;
18 -> 70 ;
71 [label=<intent_DEBTCONSOLIDATION &le; 0.001<br/>gini = 0.319<br/>samples = 1879<br/>value = [1505, 374]<br/>class = Refused>, fillcolor="#eba06a"] ;
70 -> 71 ;
72 [label=<intent_HOMEIMPROVEMENT &le; 0.007<br/>gini = 0.25<br/>samples = 1466<br/>value = [1251, 215]<br/>class = Refused>, fillcolor="#e9975b"] ;
71 -> 72 ;
73 [label=<intent_VENTURE &le; 0.968<br/>gini = 0.198<br/>samples = 1152<br/>value = [1024, 128]<br/>class = Refused>, fillcolor="#e89152"] ;
72 -> 73 ;
74 [label=<intent_VENTURE &le; 0.016<br/>gini = 0.245<br/>samples = 799<br/>value = [685, 114]<br/>class = Refused>, fillcolor="#e9965a"] ;
73 -> 74 ;
75 [label=<person_income &le; 42240.0<br/>gini = 0.234<br/>samples = 792<br/>value = [685.0, 107.0]<br/>class = Refused>, fillcolor="#e99558"] ;
74 -> 75 ;
76 [label=<gini = 0.441<br/>samples = 76<br/>value = [51, 25]<br/>class = Refused>, fillcolor="#f2bf9a"] ;
75 -> 76 ;
77 [label=<gini = 0.203<br/>samples = 716<br/>value = [634, 82]<br/>class = Refused>, fillcolor="#e89153"] ;
75 -> 77 ;
78 [label=<gini = 0.0<br/>samples = 7<br/>value = [0, 7]<br/>class = Accepted>, fillcolor="#399de5"] ;
74 -> 78 ;
79 [label=<loan_int_rate &le; 11.005<br/>gini = 0.076<br/>samples = 353<br/>value = [339, 14]<br/>class = Refused>, fillcolor="#e68641"] ;
73 -> 79 ;
80 [label=<person_emp_exp &le; 0.826<br/>gini = 0.03<br/>samples = 265<br/>value = [261, 4]<br/>class = Refused>, fillcolor="#e5833c"] ;
79 -> 80 ;
81 [label=<gini = 0.131<br/>samples = 57<br/>value = [53, 4]<br/>class = Refused>, fillcolor="#e78b48"] ;
80 -> 81 ;
82 [label=<gini = 0.0<br/>samples = 208<br/>value = [208, 0]<br/>class = Refused>, fillcolor="#e58139"] ;
80 -> 82 ;
83 [label=<loan_amnt &le; 24500.0<br/>gini = 0.201<br/>samples = 88<br/>value = [78, 10]<br/>class = Refused>, fillcolor="#e89152"] ;
79 -> 83 ;
84 [label=<gini = 0.134<br/>samples = 83<br/>value = [77, 6]<br/>class = Refused>, fillcolor="#e78b48"] ;
83 -> 84 ;
85 [label=<gini = 0.32<br/>samples = 5<br/>value = [1, 4]<br/>class = Accepted>, fillcolor="#6ab6ec"] ;
83 -> 85 ;
86 [label=<intent_HOMEIMPROVEMENT &le; 0.997<br/>gini = 0.401<br/>samples = 314<br/>value = [227.0, 87.0]<br/>class = Refused>, fillcolor="#efb185"] ;
72 -> 86 ;
87 [label=<gini = 0.0<br/>samples = 30<br/>value = [0, 30]<br/>class = Accepted>, fillcolor="#399de5"] ;
86 -> 87 ;
88 [label=<person_age &le; 23.5<br/>gini = 0.321<br/>samples = 284<br/>value = [227, 57]<br/>class = Refused>, fillcolor="#eca16b"] ;
86 -> 88 ;
89 [label=<person_gender &le; 0.5<br/>gini = 0.133<br/>samples = 14<br/>value = [1, 13]<br/>class = Accepted>, fillcolor="#48a5e7"] ;
88 -> 89 ;
90 [label=<gini = 0.5<br/>samples = 2<br/>value = [1, 1]<br/>class = Refused>, fillcolor="#ffffff"] ;
89 -> 90 ;
91 [label=<gini = 0.0<br/>samples = 12<br/>value = [0, 12]<br/>class = Accepted>, fillcolor="#399de5"] ;
89 -> 91 ;
92 [label=<credit_score &le; 652.5<br/>gini = 0.273<br/>samples = 270<br/>value = [226, 44]<br/>class = Refused>, fillcolor="#ea9a60"] ;
88 -> 92 ;
93 [label=<gini = 0.388<br/>samples = 114<br/>value = [84, 30]<br/>class = Refused>, fillcolor="#eeae80"] ;
92 -> 93 ;
94 [label=<gini = 0.163<br/>samples = 156<br/>value = [142, 14]<br/>class = Refused>, fillcolor="#e88d4d"] ;
92 -> 94 ;
95 [label=<intent_DEBTCONSOLIDATION &le; 0.994<br/>gini = 0.474<br/>samples = 413<br/>value = [254, 159]<br/>class = Refused>, fillcolor="#f5d0b5"] ;
71 -> 95 ;
96 [label=<gini = 0.0<br/>samples = 61<br/>value = [0, 61]<br/>class = Accepted>, fillcolor="#399de5"] ;
95 -> 96 ;
97 [label=<credit_score &le; 649.958<br/>gini = 0.402<br/>samples = 352<br/>value = [254.0, 98.0]<br/>class = Refused>, fillcolor="#efb285"] ;
95 -> 97 ;
98 [label=<credit_score &le; 648.5<br/>gini = 0.463<br/>samples = 179<br/>value = [114, 65]<br/>class = Refused>, fillcolor="#f4c9aa"] ;
97 -> 98 ;
99 [label=<credit_score &le; 581.5<br/>gini = 0.451<br/>samples = 172<br/>value = [113.0, 59.0]<br/>class = Refused>, fillcolor="#f3c3a0"] ;
98 -> 99 ;
100 [label=<gini = 0.5<br/>samples = 37<br/>value = [18, 19]<br/>class = Accepted>, fillcolor="#f5fafe"] ;
99 -> 100 ;
101 [label=<gini = 0.417<br/>samples = 135<br/>value = [95, 40]<br/>class = Refused>, fillcolor="#f0b68c"] ;
99 -> 101 ;
102 [label=<person_income &le; 98865.5<br/>gini = 0.245<br/>samples = 7<br/>value = [1, 6]<br/>class = Accepted>, fillcolor="#5aade9"] ;
98 -> 102 ;
103 [label=<gini = 0.0<br/>samples = 6<br/>value = [0, 6]<br/>class = Accepted>, fillcolor="#399de5"] ;
102 -> 103 ;
104 [label=<gini = 0.0<br/>samples = 1<br/>value = [1, 0]<br/>class = Refused>, fillcolor="#e58139"] ;
102 -> 104 ;
105 [label=<cb_person_cred_hist_length &le; 17.505<br/>gini = 0.309<br/>samples = 173<br/>value = [140, 33]<br/>class = Refused>, fillcolor="#eb9f68"] ;
97 -> 105 ;
106 [label=<person_income &le; 78341.414<br/>gini = 0.291<br/>samples = 170<br/>value = [140.0, 30.0]<br/>class = Refused>, fillcolor="#eb9c63"] ;
105 -> 106 ;
107 [label=<gini = 0.412<br/>samples = 62<br/>value = [44, 18]<br/>class = Refused>, fillcolor="#f0b58a"] ;
106 -> 107 ;
108 [label=<gini = 0.198<br/>samples = 108<br/>value = [96, 12]<br/>class = Refused>, fillcolor="#e89152"] ;
106 -> 108 ;
109 [label=<gini = 0.0<br/>samples = 3<br/>value = [0, 3]<br/>class = Accepted>, fillcolor="#399de5"] ;
105 -> 109 ;
110 [label=<intent_MEDICAL &le; 0.998<br/>gini = 0.488<br/>samples = 463<br/>value = [268, 195]<br/>class = Refused>, fillcolor="#f8ddc9"] ;
70 -> 110 ;
111 [label=<gini = 0.0<br/>samples = 83<br/>value = [0, 83]<br/>class = Accepted>, fillcolor="#399de5"] ;
110 -> 111 ;
112 [label=<credit_score &le; 563.862<br/>gini = 0.416<br/>samples = 380<br/>value = [268.0, 112.0]<br/>class = Refused>, fillcolor="#f0b68c"] ;
110 -> 112 ;
113 [label=<loan_amnt &le; 5487.5<br/>gini = 0.363<br/>samples = 21<br/>value = [5, 16]<br/>class = Accepted>, fillcolor="#77bced"] ;
112 -> 113 ;
114 [label=<loan_int_rate &le; 10.19<br/>gini = 0.49<br/>samples = 7<br/>value = [4, 3]<br/>class = Refused>, fillcolor="#f8e0ce"] ;
113 -> 114 ;
115 [label=<gini = 0.0<br/>samples = 3<br/>value = [0, 3]<br/>class = Accepted>, fillcolor="#399de5"] ;
114 -> 115 ;
116 [label=<gini = 0.0<br/>samples = 4<br/>value = [4, 0]<br/>class = Refused>, fillcolor="#e58139"] ;
114 -> 116 ;
117 [label=<person_education &le; 1.005<br/>gini = 0.133<br/>samples = 14<br/>value = [1, 13]<br/>class = Accepted>, fillcolor="#48a5e7"] ;
113 -> 117 ;
118 [label=<loan_amnt &le; 16615.5<br/>gini = 0.375<br/>samples = 4<br/>value = [1, 3]<br/>class = Accepted>, fillcolor="#7bbeee"] ;
117 -> 118 ;
119 [label=<gini = 0.5<br/>samples = 2<br/>value = [1, 1]<br/>class = Refused>, fillcolor="#ffffff"] ;
118 -> 119 ;
120 [label=<gini = 0.0<br/>samples = 2<br/>value = [0, 2]<br/>class = Accepted>, fillcolor="#399de5"] ;
118 -> 120 ;
121 [label=<gini = 0.0<br/>samples = 10<br/>value = [0, 10]<br/>class = Accepted>, fillcolor="#399de5"] ;
117 -> 121 ;
122 [label=<person_income &le; 78623.0<br/>gini = 0.392<br/>samples = 359<br/>value = [263, 96]<br/>class = Refused>, fillcolor="#eeaf81"] ;
112 -> 122 ;
123 [label=<person_income &le; 75882.5<br/>gini = 0.46<br/>samples = 190<br/>value = [122, 68]<br/>class = Refused>, fillcolor="#f3c7a7"] ;
122 -> 123 ;
124 [label=<home_OWN &le; 0.5<br/>gini = 0.428<br/>samples = 171<br/>value = [118, 53]<br/>class = Refused>, fillcolor="#f1ba92"] ;
123 -> 124 ;
125 [label=<gini = 0.468<br/>samples = 139<br/>value = [87, 52]<br/>class = Refused>, fillcolor="#f5ccaf"] ;
124 -> 125 ;
126 [label=<gini = 0.061<br/>samples = 32<br/>value = [31, 1]<br/>class = Refused>, fillcolor="#e6853f"] ;
124 -> 126 ;
127 [label=<person_emp_exp &le; 4.27<br/>gini = 0.332<br/>samples = 19<br/>value = [4, 15]<br/>class = Accepted>, fillcolor="#6eb7ec"] ;
123 -> 127 ;
128 [label=<gini = 0.48<br/>samples = 5<br/>value = [3, 2]<br/>class = Refused>, fillcolor="#f6d5bd"] ;
127 -> 128 ;
129 [label=<gini = 0.133<br/>samples = 14<br/>value = [1, 13]<br/>class = Accepted>, fillcolor="#48a5e7"] ;
127 -> 129 ;
130 [label=<person_income &le; 286994.5<br/>gini = 0.276<br/>samples = 169<br/>value = [141.0, 28.0]<br/>class = Refused>, fillcolor="#ea9a60"] ;
122 -> 130 ;
131 [label=<loan_int_rate &le; 11.0<br/>gini = 0.23<br/>samples = 158<br/>value = [137.0, 21.0]<br/>class = Refused>, fillcolor="#e99457"] ;
130 -> 131 ;
132 [label=<gini = 0.115<br/>samples = 114<br/>value = [107, 7]<br/>class = Refused>, fillcolor="#e78946"] ;
131 -> 132 ;
133 [label=<gini = 0.434<br/>samples = 44<br/>value = [30.0, 14.0]<br/>class = Refused>, fillcolor="#f1bc95"] ;
131 -> 133 ;
134 [label=<cb_person_cred_hist_length &le; 8.5<br/>gini = 0.463<br/>samples = 11<br/>value = [4, 7]<br/>class = Accepted>, fillcolor="#aad5f4"] ;
130 -> 134 ;
135 [label=<gini = 0.0<br/>samples = 4<br/>value = [4, 0]<br/>class = Refused>, fillcolor="#e58139"] ;
134 -> 135 ;
136 [label=<gini = 0.0<br/>samples = 7<br/>value = [0, 7]<br/>class = Accepted>, fillcolor="#399de5"] ;
134 -> 136 ;
137 [label=<home_OWN &le; 0.732<br/>gini = 0.488<br/>samples = 2140<br/>value = [1235, 905]<br/>class = Refused>, fillcolor="#f8ddca"] ;
17 -> 137 ;
138 [label=<intent_VENTURE &le; 0.976<br/>gini = 0.498<br/>samples = 1927<br/>value = [1022.0, 905.0]<br/>class = Refused>, fillcolor="#fcf1e8"] ;
137 -> 138 ;
139 [label=<intent_EDUCATION &le; 0.998<br/>gini = 0.499<br/>samples = 1702<br/>value = [821, 881]<br/>class = Accepted>, fillcolor="#f2f8fd"] ;
138 -> 139 ;
140 [label=<intent_PERSONAL &le; 0.995<br/>gini = 0.49<br/>samples = 1408<br/>value = [604, 804]<br/>class = Accepted>, fillcolor="#cee7f9"] ;
139 -> 140 ;
141 [label=<intent_PERSONAL &le; 0.012<br/>gini = 0.459<br/>samples = 1146<br/>value = [408, 738]<br/>class = Accepted>, fillcolor="#a6d3f3"] ;
140 -> 141 ;
142 [label=<credit_score &le; 679.709<br/>gini = 0.479<br/>samples = 1026<br/>value = [408, 618]<br/>class = Accepted>, fillcolor="#bcdef6"] ;
141 -> 142 ;
143 [label=<intent_EDUCATION &le; 0.034<br/>gini = 0.453<br/>samples = 878<br/>value = [305, 573]<br/>class = Accepted>, fillcolor="#a2d1f3"] ;
142 -> 143 ;
144 [label=<gini = 0.473<br/>samples = 795<br/>value = [305, 490]<br/>class = Accepted>, fillcolor="#b4daf5"] ;
143 -> 144 ;
145 [label=<gini = 0.0<br/>samples = 83<br/>value = [0, 83]<br/>class = Accepted>, fillcolor="#399de5"] ;
143 -> 145 ;
146 [label=<loan_percent_income &le; 0.275<br/>gini = 0.423<br/>samples = 148<br/>value = [103, 45]<br/>class = Refused>, fillcolor="#f0b890"] ;
142 -> 146 ;
147 [label=<gini = 0.396<br/>samples = 140<br/>value = [102, 38]<br/>class = Refused>, fillcolor="#efb083"] ;
146 -> 147 ;
148 [label=<gini = 0.219<br/>samples = 8<br/>value = [1, 7]<br/>class = Accepted>, fillcolor="#55abe9"] ;
146 -> 148 ;
149 [label=<gini = 0.0<br/>samples = 120<br/>value = [0, 120]<br/>class = Accepted>, fillcolor="#399de5"] ;
141 -> 149 ;
150 [label=<credit_score &le; 591.5<br/>gini = 0.377<br/>samples = 262<br/>value = [196, 66]<br/>class = Refused>, fillcolor="#eeab7c"] ;
140 -> 150 ;
151 [label=<person_income &le; 91770.0<br/>gini = 0.499<br/>samples = 29<br/>value = [15.0, 14.0]<br/>class = Refused>, fillcolor="#fdf7f2"] ;
150 -> 151 ;
152 [label=<cb_person_cred_hist_length &le; 3.5<br/>gini = 0.43<br/>samples = 16<br/>value = [5, 11]<br/>class = Accepted>, fillcolor="#93caf1"] ;
151 -> 152 ;
153 [label=<gini = 0.0<br/>samples = 6<br/>value = [0, 6]<br/>class = Accepted>, fillcolor="#399de5"] ;
152 -> 153 ;
154 [label=<gini = 0.5<br/>samples = 10<br/>value = [5, 5]<br/>class = Refused>, fillcolor="#ffffff"] ;
152 -> 154 ;
155 [label=<person_emp_exp &le; 4.5<br/>gini = 0.355<br/>samples = 13<br/>value = [10, 3]<br/>class = Refused>, fillcolor="#eda774"] ;
151 -> 155 ;
156 [label=<gini = 0.0<br/>samples = 9<br/>value = [9, 0]<br/>class = Refused>, fillcolor="#e58139"] ;
155 -> 156 ;
157 [label=<gini = 0.375<br/>samples = 4<br/>value = [1, 3]<br/>class = Accepted>, fillcolor="#7bbeee"] ;
155 -> 157 ;
158 [label=<person_education &le; 1.185<br/>gini = 0.347<br/>samples = 233<br/>value = [181, 52]<br/>class = Refused>, fillcolor="#eca572"] ;
150 -> 158 ;
159 [label=<loan_int_rate &le; 11.045<br/>gini = 0.109<br/>samples = 52<br/>value = [49, 3]<br/>class = Refused>, fillcolor="#e78945"] ;
158 -> 159 ;
160 [label=<gini = 0.0<br/>samples = 1<br/>value = [0, 1]<br/>class = Accepted>, fillcolor="#399de5"] ;
159 -> 160 ;
161 [label=<gini = 0.075<br/>samples = 51<br/>value = [49, 2]<br/>class = Refused>, fillcolor="#e68641"] ;
159 -> 161 ;
162 [label=<person_education &le; 3.85<br/>gini = 0.395<br/>samples = 181<br/>value = [132.0, 49.0]<br/>class = Refused>, fillcolor="#efb082"] ;
158 -> 162 ;
163 [label=<gini = 0.444<br/>samples = 138<br/>value = [92, 46]<br/>class = Refused>, fillcolor="#f2c09c"] ;
162 -> 163 ;
164 [label=<gini = 0.13<br/>samples = 43<br/>value = [40, 3]<br/>class = Refused>, fillcolor="#e78a48"] ;
162 -> 164 ;
165 [label=<loan_percent_income &le; 0.351<br/>gini = 0.387<br/>samples = 294<br/>value = [217, 77]<br/>class = Refused>, fillcolor="#eeae7f"] ;
139 -> 165 ;
166 [label=<credit_score &le; 661.759<br/>gini = 0.374<br/>samples = 289<br/>value = [217, 72]<br/>class = Refused>, fillcolor="#eeab7b"] ;
165 -> 166 ;
167 [label=<cb_person_cred_hist_length &le; 4.103<br/>gini = 0.434<br/>samples = 179<br/>value = [122.0, 57.0]<br/>class = Refused>, fillcolor="#f1bc96"] ;
166 -> 167 ;
168 [label=<person_income &le; 67072.0<br/>gini = 0.323<br/>samples = 89<br/>value = [71, 18]<br/>class = Refused>, fillcolor="#eca16b"] ;
167 -> 168 ;
169 [label=<gini = 0.473<br/>samples = 26<br/>value = [16, 10]<br/>class = Refused>, fillcolor="#f5d0b5"] ;
168 -> 169 ;
170 [label=<gini = 0.222<br/>samples = 63<br/>value = [55, 8]<br/>class = Refused>, fillcolor="#e99356"] ;
168 -> 170 ;
171 [label=<cb_person_cred_hist_length &le; 4.93<br/>gini = 0.491<br/>samples = 90<br/>value = [51, 39]<br/>class = Refused>, fillcolor="#f9e1d0"] ;
167 -> 171 ;
172 [label=<gini = 0.0<br/>samples = 4<br/>value = [0, 4]<br/>class = Accepted>, fillcolor="#399de5"] ;
171 -> 172 ;
173 [label=<gini = 0.483<br/>samples = 86<br/>value = [51.0, 35.0]<br/>class = Refused>, fillcolor="#f7d7c1"] ;
171 -> 173 ;
174 [label=<person_age &le; 31.5<br/>gini = 0.236<br/>samples = 110<br/>value = [95.0, 15.0]<br/>class = Refused>, fillcolor="#e99558"] ;
166 -> 174 ;
175 [label=<person_income &le; 51116.5<br/>gini = 0.142<br/>samples = 78<br/>value = [72, 6]<br/>class = Refused>, fillcolor="#e78c49"] ;
174 -> 175 ;
176 [label=<gini = 0.48<br/>samples = 10<br/>value = [6, 4]<br/>class = Refused>, fillcolor="#f6d5bd"] ;
175 -> 176 ;
177 [label=<gini = 0.057<br/>samples = 68<br/>value = [66, 2]<br/>class = Refused>, fillcolor="#e6853f"] ;
175 -> 177 ;
178 [label=<credit_score &le; 681.211<br/>gini = 0.404<br/>samples = 32<br/>value = [23, 9]<br/>class = Refused>, fillcolor="#efb286"] ;
174 -> 178 ;
179 [label=<gini = 0.0<br/>samples = 13<br/>value = [13, 0]<br/>class = Refused>, fillcolor="#e58139"] ;
178 -> 179 ;
180 [label=<gini = 0.499<br/>samples = 19<br/>value = [10, 9]<br/>class = Refused>, fillcolor="#fcf2eb"] ;
178 -> 180 ;
181 [label=<gini = 0.0<br/>samples = 5<br/>value = [0, 5]<br/>class = Accepted>, fillcolor="#399de5"] ;
165 -> 181 ;
182 [label=<person_income &le; 36010.0<br/>gini = 0.191<br/>samples = 225<br/>value = [201, 24]<br/>class = Refused>, fillcolor="#e89051"] ;
138 -> 182 ;
183 [label=<person_age &le; 28.0<br/>gini = 0.444<br/>samples = 3<br/>value = [1, 2]<br/>class = Accepted>, fillcolor="#9ccef2"] ;
182 -> 183 ;
184 [label=<gini = 0.0<br/>samples = 2<br/>value = [0, 2]<br/>class = Accepted>, fillcolor="#399de5"] ;
183 -> 184 ;
185 [label=<gini = 0.0<br/>samples = 1<br/>value = [1, 0]<br/>class = Refused>, fillcolor="#e58139"] ;
183 -> 185 ;
186 [label=<person_income &le; 119808.0<br/>gini = 0.179<br/>samples = 222<br/>value = [200, 22]<br/>class = Refused>, fillcolor="#e88f4f"] ;
182 -> 186 ;
187 [label=<loan_int_rate &le; 12.82<br/>gini = 0.234<br/>samples = 155<br/>value = [134.0, 21.0]<br/>class = Refused>, fillcolor="#e99558"] ;
186 -> 187 ;
188 [label=<loan_percent_income &le; 0.365<br/>gini = 0.165<br/>samples = 110<br/>value = [100, 10]<br/>class = Refused>, fillcolor="#e88e4d"] ;
187 -> 188 ;
189 [label=<loan_percent_income &le; 0.115<br/>gini = 0.153<br/>samples = 108<br/>value = [99, 9]<br/>class = Refused>, fillcolor="#e78c4b"] ;
188 -> 189 ;
190 [label=<gini = 0.241<br/>samples = 57<br/>value = [49, 8]<br/>class = Refused>, fillcolor="#e99659"] ;
189 -> 190 ;
191 [label=<gini = 0.038<br/>samples = 51<br/>value = [50, 1]<br/>class = Refused>, fillcolor="#e6843d"] ;
189 -> 191 ;
192 [label=<loan_amnt &le; 18725.0<br/>gini = 0.5<br/>samples = 2<br/>value = [1, 1]<br/>class = Refused>, fillcolor="#ffffff"] ;
188 -> 192 ;
193 [label=<gini = 0.0<br/>samples = 1<br/>value = [0, 1]<br/>class = Accepted>, fillcolor="#399de5"] ;
192 -> 193 ;
194 [label=<gini = 0.0<br/>samples = 1<br/>value = [1, 0]<br/>class = Refused>, fillcolor="#e58139"] ;
192 -> 194 ;
195 [label=<person_income &le; 96050.332<br/>gini = 0.369<br/>samples = 45<br/>value = [34, 11]<br/>class = Refused>, fillcolor="#edaa79"] ;
187 -> 195 ;
196 [label=<loan_int_rate &le; 12.94<br/>gini = 0.266<br/>samples = 38<br/>value = [32, 6]<br/>class = Refused>, fillcolor="#ea995e"] ;
195 -> 196 ;
197 [label=<gini = 0.48<br/>samples = 5<br/>value = [2, 3]<br/>class = Accepted>, fillcolor="#bddef6"] ;
196 -> 197 ;
198 [label=<gini = 0.165<br/>samples = 33<br/>value = [30, 3]<br/>class = Refused>, fillcolor="#e88e4d"] ;
196 -> 198 ;
199 [label=<loan_int_rate &le; 13.375<br/>gini = 0.408<br/>samples = 7<br/>value = [2, 5]<br/>class = Accepted>, fillcolor="#88c4ef"] ;
195 -> 199 ;
200 [label=<gini = 0.0<br/>samples = 4<br/>value = [0, 4]<br/>class = Accepted>, fillcolor="#399de5"] ;
199 -> 200 ;
201 [label=<gini = 0.444<br/>samples = 3<br/>value = [2, 1]<br/>class = Refused>, fillcolor="#f2c09c"] ;
199 -> 201 ;
202 [label=<loan_int_rate &le; 13.485<br/>gini = 0.029<br/>samples = 67<br/>value = [66, 1]<br/>class = Refused>, fillcolor="#e5833c"] ;
186 -> 202 ;
203 [label=<gini = 0.0<br/>samples = 63<br/>value = [63, 0]<br/>class = Refused>, fillcolor="#e58139"] ;
202 -> 203 ;
204 [label=<credit_score &le; 649.0<br/>gini = 0.375<br/>samples = 4<br/>value = [3, 1]<br/>class = Refused>, fillcolor="#eeab7b"] ;
202 -> 204 ;
205 [label=<gini = 0.0<br/>samples = 3<br/>value = [3, 0]<br/>class = Refused>, fillcolor="#e58139"] ;
204 -> 205 ;
206 [label=<gini = 0.0<br/>samples = 1<br/>value = [0, 1]<br/>class = Accepted>, fillcolor="#399de5"] ;
204 -> 206 ;
207 [label=<gini = 0.0<br/>samples = 213<br/>value = [213, 0]<br/>class = Refused>, fillcolor="#e58139"] ;
137 -> 207 ;
208 [label=<intent_DEBTCONSOLIDATION &le; 0.003<br/>gini = 0.366<br/>samples = 2724<br/>value = [657, 2067]<br/>class = Accepted>, fillcolor="#78bced"] ;
2 -> 208 ;
209 [label=<intent_MEDICAL &le; 0.002<br/>gini = 0.444<br/>samples = 1792<br/>value = [596, 1196]<br/>class = Accepted>, fillcolor="#9ccef2"] ;
208 -> 209 ;
210 [label=<person_income &le; 107327.0<br/>gini = 0.5<br/>samples = 1047<br/>value = [536, 511]<br/>class = Refused>, fillcolor="#fef9f6"] ;
209 -> 210 ;
211 [label=<home_OWN &le; 0.872<br/>gini = 0.494<br/>samples = 728<br/>value = [323, 405]<br/>class = Accepted>, fillcolor="#d7ebfa"] ;
210 -> 211 ;
212 [label=<credit_score &le; 650.698<br/>gini = 0.477<br/>samples = 612<br/>value = [241, 371]<br/>class = Accepted>, fillcolor="#baddf6"] ;
211 -> 212 ;
213 [label=<intent_HOMEIMPROVEMENT &le; 0.024<br/>gini = 0.42<br/>samples = 326<br/>value = [98, 228]<br/>class = Accepted>, fillcolor="#8ec7f0"] ;
212 -> 213 ;
214 [label=<loan_int_rate &le; 14.093<br/>gini = 0.456<br/>samples = 247<br/>value = [87, 160]<br/>class = Accepted>, fillcolor="#a5d2f3"] ;
213 -> 214 ;
215 [label=<person_income &le; 86321.5<br/>gini = 0.436<br/>samples = 28<br/>value = [19, 9]<br/>class = Refused>, fillcolor="#f1bd97"] ;
214 -> 215 ;
216 [label=<person_gender &le; 0.081<br/>gini = 0.375<br/>samples = 24<br/>value = [18, 6]<br/>class = Refused>, fillcolor="#eeab7b"] ;
215 -> 216 ;
217 [label=<gini = 0.0<br/>samples = 9<br/>value = [9, 0]<br/>class = Refused>, fillcolor="#e58139"] ;
216 -> 217 ;
218 [label=<gini = 0.48<br/>samples = 15<br/>value = [9, 6]<br/>class = Refused>, fillcolor="#f6d5bd"] ;
216 -> 218 ;
219 [label=<person_education &le; 1.5<br/>gini = 0.375<br/>samples = 4<br/>value = [1, 3]<br/>class = Accepted>, fillcolor="#7bbeee"] ;
215 -> 219 ;
220 [label=<gini = 0.0<br/>samples = 1<br/>value = [1, 0]<br/>class = Refused>, fillcolor="#e58139"] ;
219 -> 220 ;
221 [label=<gini = 0.0<br/>samples = 3<br/>value = [0, 3]<br/>class = Accepted>, fillcolor="#399de5"] ;
219 -> 221 ;
222 [label=<person_age &le; 24.025<br/>gini = 0.428<br/>samples = 219<br/>value = [68, 151]<br/>class = Accepted>, fillcolor="#92c9f1"] ;
214 -> 222 ;
223 [label=<loan_percent_income &le; 0.125<br/>gini = 0.494<br/>samples = 94<br/>value = [42, 52]<br/>class = Accepted>, fillcolor="#d9ecfa"] ;
222 -> 223 ;
224 [label=<gini = 0.397<br/>samples = 33<br/>value = [24, 9]<br/>class = Refused>, fillcolor="#efb083"] ;
223 -> 224 ;
225 [label=<gini = 0.416<br/>samples = 61<br/>value = [18, 43]<br/>class = Accepted>, fillcolor="#8cc6f0"] ;
223 -> 225 ;
226 [label=<loan_int_rate &le; 18.045<br/>gini = 0.329<br/>samples = 125<br/>value = [26, 99]<br/>class = Accepted>, fillcolor="#6db7ec"] ;
222 -> 226 ;
227 [label=<gini = 0.299<br/>samples = 120<br/>value = [22, 98]<br/>class = Accepted>, fillcolor="#65b3eb"] ;
226 -> 227 ;
228 [label=<gini = 0.32<br/>samples = 5<br/>value = [4, 1]<br/>class = Refused>, fillcolor="#eca06a"] ;
226 -> 228 ;
229 [label=<person_income &le; 94956.0<br/>gini = 0.24<br/>samples = 79<br/>value = [11, 68]<br/>class = Accepted>, fillcolor="#59ade9"] ;
213 -> 229 ;
230 [label=<credit_score &le; 642.242<br/>gini = 0.149<br/>samples = 74<br/>value = [6, 68]<br/>class = Accepted>, fillcolor="#4aa6e7"] ;
229 -> 230 ;
231 [label=<person_age &le; 43.0<br/>gini = 0.084<br/>samples = 68<br/>value = [3, 65]<br/>class = Accepted>, fillcolor="#42a2e6"] ;
230 -> 231 ;
232 [label=<gini = 0.058<br/>samples = 67<br/>value = [2, 65]<br/>class = Accepted>, fillcolor="#3fa0e6"] ;
231 -> 232 ;
233 [label=<gini = 0.0<br/>samples = 1<br/>value = [1, 0]<br/>class = Refused>, fillcolor="#e58139"] ;
231 -> 233 ;
234 [label=<person_emp_exp &le; 5.5<br/>gini = 0.5<br/>samples = 6<br/>value = [3, 3]<br/>class = Refused>, fillcolor="#ffffff"] ;
230 -> 234 ;
235 [label=<gini = 0.375<br/>samples = 4<br/>value = [1, 3]<br/>class = Accepted>, fillcolor="#7bbeee"] ;
234 -> 235 ;
236 [label=<gini = 0.0<br/>samples = 2<br/>value = [2, 0]<br/>class = Refused>, fillcolor="#e58139"] ;
234 -> 236 ;
237 [label=<gini = 0.0<br/>samples = 5<br/>value = [5, 0]<br/>class = Refused>, fillcolor="#e58139"] ;
229 -> 237 ;
238 [label=<cb_person_cred_hist_length &le; 12.5<br/>gini = 0.5<br/>samples = 286<br/>value = [143, 143]<br/>class = Refused>, fillcolor="#ffffff"] ;
212 -> 238 ;
239 [label=<cb_person_cred_hist_length &le; 8.542<br/>gini = 0.499<br/>samples = 268<br/>value = [140, 128]<br/>class = Refused>, fillcolor="#fdf4ee"] ;
238 -> 239 ;
240 [label=<cb_person_cred_hist_length &le; 6.121<br/>gini = 0.499<br/>samples = 220<br/>value = [105, 115]<br/>class = Accepted>, fillcolor="#eef6fd"] ;
239 -> 240 ;
241 [label=<person_income &le; 42196.5<br/>gini = 0.495<br/>samples = 172<br/>value = [95, 77]<br/>class = Refused>, fillcolor="#fae7d9"] ;
240 -> 241 ;
242 [label=<gini = 0.305<br/>samples = 16<br/>value = [3, 13]<br/>class = Accepted>, fillcolor="#67b4eb"] ;
241 -> 242 ;
243 [label=<gini = 0.484<br/>samples = 156<br/>value = [92, 64]<br/>class = Refused>, fillcolor="#f7d9c3"] ;
241 -> 243 ;
244 [label=<loan_amnt &le; 2602.0<br/>gini = 0.33<br/>samples = 48<br/>value = [10, 38]<br/>class = Accepted>, fillcolor="#6db7ec"] ;
240 -> 244 ;
245 [label=<gini = 0.0<br/>samples = 3<br/>value = [3, 0]<br/>class = Refused>, fillcolor="#e58139"] ;
244 -> 245 ;
246 [label=<gini = 0.263<br/>samples = 45<br/>value = [7, 38]<br/>class = Accepted>, fillcolor="#5dafea"] ;
244 -> 246 ;
247 [label=<loan_int_rate &le; 16.529<br/>gini = 0.395<br/>samples = 48<br/>value = [35, 13]<br/>class = Refused>, fillcolor="#efb083"] ;
239 -> 247 ;
248 [label=<loan_amnt &le; 1504.897<br/>gini = 0.308<br/>samples = 42<br/>value = [34, 8]<br/>class = Refused>, fillcolor="#eb9f68"] ;
247 -> 248 ;
249 [label=<gini = 0.444<br/>samples = 3<br/>value = [1, 2]<br/>class = Accepted>, fillcolor="#9ccef2"] ;
248 -> 249 ;
250 [label=<gini = 0.26<br/>samples = 39<br/>value = [33, 6]<br/>class = Refused>, fillcolor="#ea985d"] ;
248 -> 250 ;
251 [label=<loan_percent_income &le; 0.1<br/>gini = 0.278<br/>samples = 6<br/>value = [1, 5]<br/>class = Accepted>, fillcolor="#61b1ea"] ;
247 -> 251 ;
252 [label=<gini = 0.0<br/>samples = 1<br/>value = [1, 0]<br/>class = Refused>, fillcolor="#e58139"] ;
251 -> 252 ;
253 [label=<gini = 0.0<br/>samples = 5<br/>value = [0, 5]<br/>class = Accepted>, fillcolor="#399de5"] ;
251 -> 253 ;
254 [label=<credit_score &le; 725.5<br/>gini = 0.278<br/>samples = 18<br/>value = [3, 15]<br/>class = Accepted>, fillcolor="#61b1ea"] ;
238 -> 254 ;
255 [label=<person_education &le; 3.498<br/>gini = 0.117<br/>samples = 16<br/>value = [1, 15]<br/>class = Accepted>, fillcolor="#46a4e7"] ;
254 -> 255 ;
256 [label=<gini = 0.0<br/>samples = 14<br/>value = [0, 14]<br/>class = Accepted>, fillcolor="#399de5"] ;
255 -> 256 ;
257 [label=<intent_HOMEIMPROVEMENT &le; 0.5<br/>gini = 0.5<br/>samples = 2<br/>value = [1, 1]<br/>class = Refused>, fillcolor="#ffffff"] ;
255 -> 257 ;
258 [label=<gini = 0.0<br/>samples = 1<br/>value = [0, 1]<br/>class = Accepted>, fillcolor="#399de5"] ;
257 -> 258 ;
259 [label=<gini = 0.0<br/>samples = 1<br/>value = [1, 0]<br/>class = Refused>, fillcolor="#e58139"] ;
257 -> 259 ;
260 [label=<gini = 0.0<br/>samples = 2<br/>value = [2, 0]<br/>class = Refused>, fillcolor="#e58139"] ;
254 -> 260 ;
261 [label=<person_income &le; 25380.0<br/>gini = 0.414<br/>samples = 116<br/>value = [82, 34]<br/>class = Refused>, fillcolor="#f0b58b"] ;
211 -> 261 ;
262 [label=<loan_percent_income &le; 0.12<br/>gini = 0.175<br/>samples = 31<br/>value = [3, 28]<br/>class = Accepted>, fillcolor="#4ea8e8"] ;
261 -> 262 ;
263 [label=<gini = 0.0<br/>samples = 3<br/>value = [3, 0]<br/>class = Refused>, fillcolor="#e58139"] ;
262 -> 263 ;
264 [label=<gini = 0.0<br/>samples = 28<br/>value = [0, 28]<br/>class = Accepted>, fillcolor="#399de5"] ;
262 -> 264 ;
265 [label=<loan_int_rate &le; 16.98<br/>gini = 0.131<br/>samples = 85<br/>value = [79, 6]<br/>class = Refused>, fillcolor="#e78b48"] ;
261 -> 265 ;
266 [label=<gini = 0.0<br/>samples = 74<br/>value = [74, 0]<br/>class = Refused>, fillcolor="#e58139"] ;
265 -> 266 ;
267 [label=<person_emp_exp &le; 10.0<br/>gini = 0.496<br/>samples = 11<br/>value = [5, 6]<br/>class = Accepted>, fillcolor="#deeffb"] ;
265 -> 267 ;
268 [label=<intent_PERSONAL &le; 0.5<br/>gini = 0.245<br/>samples = 7<br/>value = [1, 6]<br/>class = Accepted>, fillcolor="#5aade9"] ;
267 -> 268 ;
269 [label=<gini = 0.0<br/>samples = 6<br/>value = [0, 6]<br/>class = Accepted>, fillcolor="#399de5"] ;
268 -> 269 ;
270 [label=<gini = 0.0<br/>samples = 1<br/>value = [1, 0]<br/>class = Refused>, fillcolor="#e58139"] ;
268 -> 270 ;
271 [label=<gini = 0.0<br/>samples = 4<br/>value = [4, 0]<br/>class = Refused>, fillcolor="#e58139"] ;
267 -> 271 ;
272 [label=<loan_int_rate &le; 16.783<br/>gini = 0.444<br/>samples = 319<br/>value = [213, 106]<br/>class = Refused>, fillcolor="#f2c09c"] ;
210 -> 272 ;
273 [label=<person_age &le; 38.033<br/>gini = 0.375<br/>samples = 248<br/>value = [186, 62]<br/>class = Refused>, fillcolor="#eeab7b"] ;
272 -> 273 ;
274 [label=<intent_HOMEIMPROVEMENT &le; 0.036<br/>gini = 0.323<br/>samples = 217<br/>value = [173, 44]<br/>class = Refused>, fillcolor="#eca16b"] ;
273 -> 274 ;
275 [label=<loan_int_rate &le; 15.695<br/>gini = 0.257<br/>samples = 165<br/>value = [140, 25]<br/>class = Refused>, fillcolor="#ea985c"] ;
274 -> 275 ;
276 [label=<person_income &le; 119349.5<br/>gini = 0.173<br/>samples = 115<br/>value = [104, 11]<br/>class = Refused>, fillcolor="#e88e4e"] ;
275 -> 276 ;
277 [label=<loan_int_rate &le; 14.247<br/>gini = 0.346<br/>samples = 27<br/>value = [21, 6]<br/>class = Refused>, fillcolor="#eca572"] ;
276 -> 277 ;
278 [label=<gini = 0.494<br/>samples = 9<br/>value = [4, 5]<br/>class = Accepted>, fillcolor="#d7ebfa"] ;
277 -> 278 ;
279 [label=<gini = 0.105<br/>samples = 18<br/>value = [17, 1]<br/>class = Refused>, fillcolor="#e78845"] ;
277 -> 279 ;
280 [label=<credit_score &le; 650.345<br/>gini = 0.107<br/>samples = 88<br/>value = [83, 5]<br/>class = Refused>, fillcolor="#e78945"] ;
276 -> 280 ;
281 [label=<gini = 0.251<br/>samples = 34<br/>value = [29, 5]<br/>class = Refused>, fillcolor="#e9975b"] ;
280 -> 281 ;
282 [label=<gini = 0.0<br/>samples = 54<br/>value = [54, 0]<br/>class = Refused>, fillcolor="#e58139"] ;
280 -> 282 ;
283 [label=<person_income &le; 135961.203<br/>gini = 0.403<br/>samples = 50<br/>value = [36.0, 14.0]<br/>class = Refused>, fillcolor="#efb286"] ;
275 -> 283 ;
284 [label=<credit_score &le; 684.0<br/>gini = 0.091<br/>samples = 21<br/>value = [20, 1]<br/>class = Refused>, fillcolor="#e68743"] ;
283 -> 284 ;
285 [label=<gini = 0.0<br/>samples = 18<br/>value = [18, 0]<br/>class = Refused>, fillcolor="#e58139"] ;
284 -> 285 ;
286 [label=<gini = 0.444<br/>samples = 3<br/>value = [2, 1]<br/>class = Refused>, fillcolor="#f2c09c"] ;
284 -> 286 ;
287 [label=<person_income &le; 143116.0<br/>gini = 0.495<br/>samples = 29<br/>value = [16, 13]<br/>class = Refused>, fillcolor="#fae7da"] ;
283 -> 287 ;
288 [label=<gini = 0.346<br/>samples = 9<br/>value = [2, 7]<br/>class = Accepted>, fillcolor="#72b9ec"] ;
287 -> 288 ;
289 [label=<gini = 0.42<br/>samples = 20<br/>value = [14, 6]<br/>class = Refused>, fillcolor="#f0b78e"] ;
287 -> 289 ;
290 [label=<intent_HOMEIMPROVEMENT &le; 0.94<br/>gini = 0.464<br/>samples = 52<br/>value = [33, 19]<br/>class = Refused>, fillcolor="#f4caab"] ;
274 -> 290 ;
291 [label=<gini = 0.0<br/>samples = 10<br/>value = [0, 10]<br/>class = Accepted>, fillcolor="#399de5"] ;
290 -> 291 ;
292 [label=<person_emp_exp &le; 0.5<br/>gini = 0.337<br/>samples = 42<br/>value = [33, 9]<br/>class = Refused>, fillcolor="#eca36f"] ;
290 -> 292 ;
293 [label=<loan_int_rate &le; 13.84<br/>gini = 0.375<br/>samples = 4<br/>value = [1, 3]<br/>class = Accepted>, fillcolor="#7bbeee"] ;
292 -> 293 ;
294 [label=<gini = 0.0<br/>samples = 1<br/>value = [1, 0]<br/>class = Refused>, fillcolor="#e58139"] ;
293 -> 294 ;
295 [label=<gini = 0.0<br/>samples = 3<br/>value = [0, 3]<br/>class = Accepted>, fillcolor="#399de5"] ;
293 -> 295 ;
296 [label=<credit_score &le; 661.5<br/>gini = 0.266<br/>samples = 38<br/>value = [32, 6]<br/>class = Refused>, fillcolor="#ea995e"] ;
292 -> 296 ;
297 [label=<gini = 0.408<br/>samples = 21<br/>value = [15, 6]<br/>class = Refused>, fillcolor="#efb388"] ;
296 -> 297 ;
298 [label=<gini = 0.0<br/>samples = 17<br/>value = [17, 0]<br/>class = Refused>, fillcolor="#e58139"] ;
296 -> 298 ;
299 [label=<loan_percent_income &le; 0.052<br/>gini = 0.487<br/>samples = 31<br/>value = [13, 18]<br/>class = Accepted>, fillcolor="#c8e4f8"] ;
273 -> 299 ;
300 [label=<gini = 0.0<br/>samples = 7<br/>value = [7, 0]<br/>class = Refused>, fillcolor="#e58139"] ;
299 -> 300 ;
301 [label=<intent_HOMEIMPROVEMENT &le; 0.905<br/>gini = 0.375<br/>samples = 24<br/>value = [6, 18]<br/>class = Accepted>, fillcolor="#7bbeee"] ;
299 -> 301 ;
302 [label=<person_emp_exp &le; 23.0<br/>gini = 0.117<br/>samples = 16<br/>value = [1, 15]<br/>class = Accepted>, fillcolor="#46a4e7"] ;
301 -> 302 ;
303 [label=<gini = 0.0<br/>samples = 13<br/>value = [0, 13]<br/>class = Accepted>, fillcolor="#399de5"] ;
302 -> 303 ;
304 [label=<loan_int_rate &le; 14.535<br/>gini = 0.444<br/>samples = 3<br/>value = [1, 2]<br/>class = Accepted>, fillcolor="#9ccef2"] ;
302 -> 304 ;
305 [label=<gini = 0.0<br/>samples = 2<br/>value = [0, 2]<br/>class = Accepted>, fillcolor="#399de5"] ;
304 -> 305 ;
306 [label=<gini = 0.0<br/>samples = 1<br/>value = [1, 0]<br/>class = Refused>, fillcolor="#e58139"] ;
304 -> 306 ;
307 [label=<loan_percent_income &le; 0.095<br/>gini = 0.469<br/>samples = 8<br/>value = [5, 3]<br/>class = Refused>, fillcolor="#f5cdb0"] ;
301 -> 307 ;
308 [label=<gini = 0.0<br/>samples = 2<br/>value = [0, 2]<br/>class = Accepted>, fillcolor="#399de5"] ;
307 -> 308 ;
309 [label=<loan_int_rate &le; 14.75<br/>gini = 0.278<br/>samples = 6<br/>value = [5, 1]<br/>class = Refused>, fillcolor="#ea9a61"] ;
307 -> 309 ;
310 [label=<gini = 0.5<br/>samples = 2<br/>value = [1, 1]<br/>class = Refused>, fillcolor="#ffffff"] ;
309 -> 310 ;
311 [label=<gini = 0.0<br/>samples = 4<br/>value = [4, 0]<br/>class = Refused>, fillcolor="#e58139"] ;
309 -> 311 ;
312 [label=<person_income &le; 118168.613<br/>gini = 0.471<br/>samples = 71<br/>value = [27, 44]<br/>class = Accepted>, fillcolor="#b2d9f5"] ;
272 -> 312 ;
313 [label=<loan_int_rate &le; 17.11<br/>gini = 0.198<br/>samples = 9<br/>value = [8, 1]<br/>class = Refused>, fillcolor="#e89152"] ;
312 -> 313 ;
314 [label=<loan_percent_income &le; 0.17<br/>gini = 0.5<br/>samples = 2<br/>value = [1, 1]<br/>class = Refused>, fillcolor="#ffffff"] ;
313 -> 314 ;
315 [label=<gini = 0.0<br/>samples = 1<br/>value = [0, 1]<br/>class = Accepted>, fillcolor="#399de5"] ;
314 -> 315 ;
316 [label=<gini = 0.0<br/>samples = 1<br/>value = [1, 0]<br/>class = Refused>, fillcolor="#e58139"] ;
314 -> 316 ;
317 [label=<gini = 0.0<br/>samples = 7<br/>value = [7, 0]<br/>class = Refused>, fillcolor="#e58139"] ;
313 -> 317 ;
318 [label=<person_gender &le; 0.971<br/>gini = 0.425<br/>samples = 62<br/>value = [19, 43]<br/>class = Accepted>, fillcolor="#90c8f0"] ;
312 -> 318 ;
319 [label=<credit_score &le; 712.5<br/>gini = 0.219<br/>samples = 32<br/>value = [4, 28]<br/>class = Accepted>, fillcolor="#55abe9"] ;
318 -> 319 ;
320 [label=<loan_amnt &le; 34560.5<br/>gini = 0.175<br/>samples = 31<br/>value = [3, 28]<br/>class = Accepted>, fillcolor="#4ea8e8"] ;
319 -> 320 ;
321 [label=<loan_amnt &le; 16000.0<br/>gini = 0.124<br/>samples = 30<br/>value = [2, 28]<br/>class = Accepted>, fillcolor="#47a4e7"] ;
320 -> 321 ;
322 [label=<gini = 0.444<br/>samples = 6<br/>value = [2, 4]<br/>class = Accepted>, fillcolor="#9ccef2"] ;
321 -> 322 ;
323 [label=<gini = 0.0<br/>samples = 24<br/>value = [0, 24]<br/>class = Accepted>, fillcolor="#399de5"] ;
321 -> 323 ;
324 [label=<gini = 0.0<br/>samples = 1<br/>value = [1, 0]<br/>class = Refused>, fillcolor="#e58139"] ;
320 -> 324 ;
325 [label=<gini = 0.0<br/>samples = 1<br/>value = [1, 0]<br/>class = Refused>, fillcolor="#e58139"] ;
319 -> 325 ;
326 [label=<person_emp_exp &le; 4.5<br/>gini = 0.5<br/>samples = 30<br/>value = [15, 15]<br/>class = Refused>, fillcolor="#ffffff"] ;
318 -> 326 ;
327 [label=<person_income &le; 214245.0<br/>gini = 0.198<br/>samples = 9<br/>value = [8, 1]<br/>class = Refused>, fillcolor="#e89152"] ;
326 -> 327 ;
328 [label=<gini = 0.0<br/>samples = 8<br/>value = [8, 0]<br/>class = Refused>, fillcolor="#e58139"] ;
327 -> 328 ;
329 [label=<gini = 0.0<br/>samples = 1<br/>value = [0, 1]<br/>class = Accepted>, fillcolor="#399de5"] ;
327 -> 329 ;
330 [label=<intent_EDUCATION &le; 0.215<br/>gini = 0.444<br/>samples = 21<br/>value = [7, 14]<br/>class = Accepted>, fillcolor="#9ccef2"] ;
326 -> 330 ;
331 [label=<loan_int_rate &le; 17.4<br/>gini = 0.48<br/>samples = 10<br/>value = [6, 4]<br/>class = Refused>, fillcolor="#f6d5bd"] ;
330 -> 331 ;
332 [label=<gini = 0.0<br/>samples = 2<br/>value = [0, 2]<br/>class = Accepted>, fillcolor="#399de5"] ;
331 -> 332 ;
333 [label=<gini = 0.375<br/>samples = 8<br/>value = [6, 2]<br/>class = Refused>, fillcolor="#eeab7b"] ;
331 -> 333 ;
334 [label=<loan_amnt &le; 8250.0<br/>gini = 0.165<br/>samples = 11<br/>value = [1, 10]<br/>class = Accepted>, fillcolor="#4da7e8"] ;
330 -> 334 ;
335 [label=<gini = 0.0<br/>samples = 1<br/>value = [1, 0]<br/>class = Refused>, fillcolor="#e58139"] ;
334 -> 335 ;
336 [label=<gini = 0.0<br/>samples = 10<br/>value = [0, 10]<br/>class = Accepted>, fillcolor="#399de5"] ;
334 -> 336 ;
337 [label=<loan_int_rate &le; 14.351<br/>gini = 0.148<br/>samples = 745<br/>value = [60.0, 685.0]<br/>class = Accepted>, fillcolor="#4aa6e7"] ;
209 -> 337 ;
338 [label=<intent_MEDICAL &le; 0.993<br/>gini = 0.341<br/>samples = 133<br/>value = [29, 104]<br/>class = Accepted>, fillcolor="#70b8ec"] ;
337 -> 338 ;
339 [label=<gini = 0.0<br/>samples = 45<br/>value = [0, 45]<br/>class = Accepted>, fillcolor="#399de5"] ;
338 -> 339 ;
340 [label=<credit_score &le; 690.348<br/>gini = 0.442<br/>samples = 88<br/>value = [29, 59]<br/>class = Accepted>, fillcolor="#9acdf2"] ;
338 -> 340 ;
341 [label=<loan_percent_income &le; 0.115<br/>gini = 0.396<br/>samples = 81<br/>value = [22, 59]<br/>class = Accepted>, fillcolor="#83c2ef"] ;
340 -> 341 ;
342 [label=<person_income &le; 77543.34<br/>gini = 0.499<br/>samples = 29<br/>value = [15.0, 14.0]<br/>class = Refused>, fillcolor="#fdf7f2"] ;
341 -> 342 ;
343 [label=<credit_score &le; 568.5<br/>gini = 0.32<br/>samples = 15<br/>value = [3, 12]<br/>class = Accepted>, fillcolor="#6ab6ec"] ;
342 -> 343 ;
344 [label=<gini = 0.0<br/>samples = 1<br/>value = [1, 0]<br/>class = Refused>, fillcolor="#e58139"] ;
343 -> 344 ;
345 [label=<loan_amnt &le; 6720.966<br/>gini = 0.245<br/>samples = 14<br/>value = [2, 12]<br/>class = Accepted>, fillcolor="#5aade9"] ;
343 -> 345 ;
346 [label=<gini = 0.142<br/>samples = 13<br/>value = [1, 12]<br/>class = Accepted>, fillcolor="#49a5e7"] ;
345 -> 346 ;
347 [label=<gini = 0.0<br/>samples = 1<br/>value = [1, 0]<br/>class = Refused>, fillcolor="#e58139"] ;
345 -> 347 ;
348 [label=<person_age &le; 23.5<br/>gini = 0.245<br/>samples = 14<br/>value = [12, 2]<br/>class = Refused>, fillcolor="#e9965a"] ;
342 -> 348 ;
349 [label=<gini = 0.0<br/>samples = 1<br/>value = [0, 1]<br/>class = Accepted>, fillcolor="#399de5"] ;
348 -> 349 ;
350 [label=<loan_amnt &le; 16593.0<br/>gini = 0.142<br/>samples = 13<br/>value = [12, 1]<br/>class = Refused>, fillcolor="#e78c49"] ;
348 -> 350 ;
351 [label=<gini = 0.0<br/>samples = 11<br/>value = [11, 0]<br/>class = Refused>, fillcolor="#e58139"] ;
350 -> 351 ;
352 [label=<gini = 0.5<br/>samples = 2<br/>value = [1, 1]<br/>class = Refused>, fillcolor="#ffffff"] ;
350 -> 352 ;
353 [label=<loan_int_rate &le; 13.62<br/>gini = 0.233<br/>samples = 52<br/>value = [7, 45]<br/>class = Accepted>, fillcolor="#58ace9"] ;
341 -> 353 ;
354 [label=<loan_percent_income &le; 0.175<br/>gini = 0.444<br/>samples = 3<br/>value = [2, 1]<br/>class = Refused>, fillcolor="#f2c09c"] ;
353 -> 354 ;
355 [label=<gini = 0.0<br/>samples = 1<br/>value = [0, 1]<br/>class = Accepted>, fillcolor="#399de5"] ;
354 -> 355 ;
356 [label=<gini = 0.0<br/>samples = 2<br/>value = [2, 0]<br/>class = Refused>, fillcolor="#e58139"] ;
354 -> 356 ;
357 [label=<person_education &le; 3.762<br/>gini = 0.183<br/>samples = 49<br/>value = [5, 44]<br/>class = Accepted>, fillcolor="#50a8e8"] ;
353 -> 357 ;
358 [label=<loan_percent_income &le; 0.33<br/>gini = 0.093<br/>samples = 41<br/>value = [2, 39]<br/>class = Accepted>, fillcolor="#43a2e6"] ;
357 -> 358 ;
359 [label=<gini = 0.05<br/>samples = 39<br/>value = [1, 38]<br/>class = Accepted>, fillcolor="#3ea0e6"] ;
358 -> 359 ;
360 [label=<gini = 0.5<br/>samples = 2<br/>value = [1, 1]<br/>class = Refused>, fillcolor="#ffffff"] ;
358 -> 360 ;
361 [label=<credit_score &le; 618.0<br/>gini = 0.469<br/>samples = 8<br/>value = [3, 5]<br/>class = Accepted>, fillcolor="#b0d8f5"] ;
357 -> 361 ;
362 [label=<gini = 0.0<br/>samples = 4<br/>value = [0, 4]<br/>class = Accepted>, fillcolor="#399de5"] ;
361 -> 362 ;
363 [label=<gini = 0.375<br/>samples = 4<br/>value = [3, 1]<br/>class = Refused>, fillcolor="#eeab7b"] ;
361 -> 363 ;
364 [label=<gini = 0.0<br/>samples = 7<br/>value = [7, 0]<br/>class = Refused>, fillcolor="#e58139"] ;
340 -> 364 ;
365 [label=<home_OWN &le; 0.993<br/>gini = 0.096<br/>samples = 612<br/>value = [31, 581]<br/>class = Accepted>, fillcolor="#44a2e6"] ;
337 -> 365 ;
366 [label=<loan_amnt &le; 1200.0<br/>gini = 0.072<br/>samples = 587<br/>value = [22, 565]<br/>class = Accepted>, fillcolor="#41a1e6"] ;
365 -> 366 ;
367 [label=<gini = 0.0<br/>samples = 1<br/>value = [1, 0]<br/>class = Refused>, fillcolor="#e58139"] ;
366 -> 367 ;
368 [label=<loan_int_rate &le; 15.546<br/>gini = 0.069<br/>samples = 586<br/>value = [21, 565]<br/>class = Accepted>, fillcolor="#40a1e6"] ;
366 -> 368 ;
369 [label=<loan_int_rate &le; 15.539<br/>gini = 0.125<br/>samples = 238<br/>value = [16, 222]<br/>class = Accepted>, fillcolor="#47a4e7"] ;
368 -> 369 ;
370 [label=<cb_person_cred_hist_length &le; 15.083<br/>gini = 0.119<br/>samples = 237<br/>value = [15.0, 222.0]<br/>class = Accepted>, fillcolor="#46a4e7"] ;
369 -> 370 ;
371 [label=<cb_person_cred_hist_length &le; 5.01<br/>gini = 0.112<br/>samples = 235<br/>value = [14, 221]<br/>class = Accepted>, fillcolor="#46a3e7"] ;
370 -> 371 ;
372 [label=<gini = 0.184<br/>samples = 107<br/>value = [11, 96]<br/>class = Accepted>, fillcolor="#50a8e8"] ;
371 -> 372 ;
373 [label=<gini = 0.046<br/>samples = 128<br/>value = [3, 125]<br/>class = Accepted>, fillcolor="#3e9fe6"] ;
371 -> 373 ;
374 [label=<loan_amnt &le; 16287.5<br/>gini = 0.5<br/>samples = 2<br/>value = [1, 1]<br/>class = Refused>, fillcolor="#ffffff"] ;
370 -> 374 ;
375 [label=<gini = 0.0<br/>samples = 1<br/>value = [1, 0]<br/>class = Refused>, fillcolor="#e58139"] ;
374 -> 375 ;
376 [label=<gini = 0.0<br/>samples = 1<br/>value = [0, 1]<br/>class = Accepted>, fillcolor="#399de5"] ;
374 -> 376 ;
377 [label=<gini = 0.0<br/>samples = 1<br/>value = [1, 0]<br/>class = Refused>, fillcolor="#e58139"] ;
369 -> 377 ;
378 [label=<loan_int_rate &le; 16.465<br/>gini = 0.028<br/>samples = 348<br/>value = [5, 343]<br/>class = Accepted>, fillcolor="#3c9ee5"] ;
368 -> 378 ;
379 [label=<loan_int_rate &le; 16.448<br/>gini = 0.06<br/>samples = 161<br/>value = [5, 156]<br/>class = Accepted>, fillcolor="#3fa0e6"] ;
378 -> 379 ;
380 [label=<loan_int_rate &le; 15.96<br/>gini = 0.049<br/>samples = 158<br/>value = [4, 154]<br/>class = Accepted>, fillcolor="#3ea0e6"] ;
379 -> 380 ;
381 [label=<gini = 0.0<br/>samples = 93<br/>value = [0, 93]<br/>class = Accepted>, fillcolor="#399de5"] ;
380 -> 381 ;
382 [label=<gini = 0.116<br/>samples = 65<br/>value = [4, 61]<br/>class = Accepted>, fillcolor="#46a3e7"] ;
380 -> 382 ;
383 [label=<loan_amnt &le; 17000.0<br/>gini = 0.444<br/>samples = 3<br/>value = [1, 2]<br/>class = Accepted>, fillcolor="#9ccef2"] ;
379 -> 383 ;
384 [label=<gini = 0.0<br/>samples = 2<br/>value = [0, 2]<br/>class = Accepted>, fillcolor="#399de5"] ;
383 -> 384 ;
385 [label=<gini = 0.0<br/>samples = 1<br/>value = [1, 0]<br/>class = Refused>, fillcolor="#e58139"] ;
383 -> 385 ;
386 [label=<gini = 0.0<br/>samples = 187<br/>value = [0, 187]<br/>class = Accepted>, fillcolor="#399de5"] ;
378 -> 386 ;
387 [label=<loan_int_rate &le; 17.015<br/>gini = 0.461<br/>samples = 25<br/>value = [9, 16]<br/>class = Accepted>, fillcolor="#a8d4f4"] ;
365 -> 387 ;
388 [label=<person_income &le; 27791.5<br/>gini = 0.459<br/>samples = 14<br/>value = [9, 5]<br/>class = Refused>, fillcolor="#f3c7a7"] ;
387 -> 388 ;
389 [label=<gini = 0.0<br/>samples = 4<br/>value = [0, 4]<br/>class = Accepted>, fillcolor="#399de5"] ;
388 -> 389 ;
390 [label=<loan_int_rate &le; 16.37<br/>gini = 0.18<br/>samples = 10<br/>value = [9, 1]<br/>class = Refused>, fillcolor="#e88f4f"] ;
388 -> 390 ;
391 [label=<gini = 0.0<br/>samples = 8<br/>value = [8, 0]<br/>class = Refused>, fillcolor="#e58139"] ;
390 -> 391 ;
392 [label=<person_gender &le; 0.5<br/>gini = 0.5<br/>samples = 2<br/>value = [1, 1]<br/>class = Refused>, fillcolor="#ffffff"] ;
390 -> 392 ;
393 [label=<gini = 0.0<br/>samples = 1<br/>value = [0, 1]<br/>class = Accepted>, fillcolor="#399de5"] ;
392 -> 393 ;
394 [label=<gini = 0.0<br/>samples = 1<br/>value = [1, 0]<br/>class = Refused>, fillcolor="#e58139"] ;
392 -> 394 ;
395 [label=<gini = 0.0<br/>samples = 11<br/>value = [0, 11]<br/>class = Accepted>, fillcolor="#399de5"] ;
387 -> 395 ;
396 [label=<home_MORTGAGE &le; 0.003<br/>gini = 0.122<br/>samples = 932<br/>value = [61.0, 871.0]<br/>class = Accepted>, fillcolor="#47a4e7"] ;
208 -> 396 ;
397 [label=<loan_int_rate &le; 16.32<br/>gini = 0.495<br/>samples = 31<br/>value = [14, 17]<br/>class = Accepted>, fillcolor="#dceefa"] ;
396 -> 397 ;
398 [label=<person_emp_exp &le; 1.262<br/>gini = 0.32<br/>samples = 15<br/>value = [12, 3]<br/>class = Refused>, fillcolor="#eca06a"] ;
397 -> 398 ;
399 [label=<person_age &le; 22.5<br/>gini = 0.5<br/>samples = 6<br/>value = [3, 3]<br/>class = Refused>, fillcolor="#ffffff"] ;
398 -> 399 ;
400 [label=<home_OTHER &le; 0.5<br/>gini = 0.375<br/>samples = 4<br/>value = [3, 1]<br/>class = Refused>, fillcolor="#eeab7b"] ;
399 -> 400 ;
401 [label=<gini = 0.0<br/>samples = 3<br/>value = [3, 0]<br/>class = Refused>, fillcolor="#e58139"] ;
400 -> 401 ;
402 [label=<gini = 0.0<br/>samples = 1<br/>value = [0, 1]<br/>class = Accepted>, fillcolor="#399de5"] ;
400 -> 402 ;
403 [label=<gini = 0.0<br/>samples = 2<br/>value = [0, 2]<br/>class = Accepted>, fillcolor="#399de5"] ;
399 -> 403 ;
404 [label=<gini = 0.0<br/>samples = 9<br/>value = [9, 0]<br/>class = Refused>, fillcolor="#e58139"] ;
398 -> 404 ;
405 [label=<person_age &le; 23.0<br/>gini = 0.219<br/>samples = 16<br/>value = [2, 14]<br/>class = Accepted>, fillcolor="#55abe9"] ;
397 -> 405 ;
406 [label=<gini = 0.0<br/>samples = 2<br/>value = [2, 0]<br/>class = Refused>, fillcolor="#e58139"] ;
405 -> 406 ;
407 [label=<gini = 0.0<br/>samples = 14<br/>value = [0, 14]<br/>class = Accepted>, fillcolor="#399de5"] ;
405 -> 407 ;
408 [label=<loan_int_rate &le; 14.351<br/>gini = 0.099<br/>samples = 901<br/>value = [47, 854]<br/>class = Accepted>, fillcolor="#44a2e6"] ;
396 -> 408 ;
409 [label=<intent_DEBTCONSOLIDATION &le; 0.991<br/>gini = 0.272<br/>samples = 166<br/>value = [27, 139]<br/>class = Accepted>, fillcolor="#5fb0ea"] ;
408 -> 409 ;
410 [label=<gini = 0.0<br/>samples = 79<br/>value = [0, 79]<br/>class = Accepted>, fillcolor="#399de5"] ;
409 -> 410 ;
411 [label=<credit_score &le; 694.5<br/>gini = 0.428<br/>samples = 87<br/>value = [27.0, 60.0]<br/>class = Accepted>, fillcolor="#92c9f1"] ;
409 -> 411 ;
412 [label=<loan_int_rate &le; 14.327<br/>gini = 0.384<br/>samples = 81<br/>value = [21, 60]<br/>class = Accepted>, fillcolor="#7ebfee"] ;
411 -> 412 ;
413 [label=<credit_score &le; 659.5<br/>gini = 0.344<br/>samples = 77<br/>value = [17, 60]<br/>class = Accepted>, fillcolor="#71b9ec"] ;
412 -> 413 ;
414 [label=<person_education &le; 3.932<br/>gini = 0.249<br/>samples = 55<br/>value = [8, 47]<br/>class = Accepted>, fillcolor="#5baee9"] ;
413 -> 414 ;
415 [label=<loan_amnt &le; 12870.485<br/>gini = 0.208<br/>samples = 51<br/>value = [6, 45]<br/>class = Accepted>, fillcolor="#53aae8"] ;
414 -> 415 ;
416 [label=<gini = 0.108<br/>samples = 35<br/>value = [2, 33]<br/>class = Accepted>, fillcolor="#45a3e7"] ;
415 -> 416 ;
417 [label=<gini = 0.375<br/>samples = 16<br/>value = [4, 12]<br/>class = Accepted>, fillcolor="#7bbeee"] ;
415 -> 417 ;
418 [label=<loan_amnt &le; 6750.0<br/>gini = 0.5<br/>samples = 4<br/>value = [2, 2]<br/>class = Refused>, fillcolor="#ffffff"] ;
414 -> 418 ;
419 [label=<gini = 0.0<br/>samples = 1<br/>value = [1, 0]<br/>class = Refused>, fillcolor="#e58139"] ;
418 -> 419 ;
420 [label=<gini = 0.444<br/>samples = 3<br/>value = [1, 2]<br/>class = Accepted>, fillcolor="#9ccef2"] ;
418 -> 420 ;
421 [label=<loan_percent_income &le; 0.1<br/>gini = 0.483<br/>samples = 22<br/>value = [9, 13]<br/>class = Accepted>, fillcolor="#c2e1f7"] ;
413 -> 421 ;
422 [label=<loan_int_rate &le; 13.678<br/>gini = 0.219<br/>samples = 8<br/>value = [7, 1]<br/>class = Refused>, fillcolor="#e99355"] ;
421 -> 422 ;
423 [label=<gini = 0.0<br/>samples = 1<br/>value = [0, 1]<br/>class = Accepted>, fillcolor="#399de5"] ;
422 -> 423 ;
424 [label=<gini = 0.0<br/>samples = 7<br/>value = [7, 0]<br/>class = Refused>, fillcolor="#e58139"] ;
422 -> 424 ;
425 [label=<loan_percent_income &le; 0.175<br/>gini = 0.245<br/>samples = 14<br/>value = [2, 12]<br/>class = Accepted>, fillcolor="#5aade9"] ;
421 -> 425 ;
426 [label=<gini = 0.444<br/>samples = 6<br/>value = [2, 4]<br/>class = Accepted>, fillcolor="#9ccef2"] ;
425 -> 426 ;
427 [label=<gini = 0.0<br/>samples = 8<br/>value = [0, 8]<br/>class = Accepted>, fillcolor="#399de5"] ;
425 -> 427 ;
428 [label=<gini = 0.0<br/>samples = 4<br/>value = [4, 0]<br/>class = Refused>, fillcolor="#e58139"] ;
412 -> 428 ;
429 [label=<gini = 0.0<br/>samples = 6<br/>value = [6, 0]<br/>class = Refused>, fillcolor="#e58139"] ;
411 -> 429 ;
430 [label=<person_income &le; 569651.5<br/>gini = 0.053<br/>samples = 735<br/>value = [20, 715]<br/>class = Accepted>, fillcolor="#3fa0e6"] ;
408 -> 430 ;
431 [label=<intent_DEBTCONSOLIDATION &le; 0.999<br/>gini = 0.05<br/>samples = 734<br/>value = [19, 715]<br/>class = Accepted>, fillcolor="#3ea0e6"] ;
430 -> 431 ;
432 [label=<gini = 0.0<br/>samples = 309<br/>value = [0, 309]<br/>class = Accepted>, fillcolor="#399de5"] ;
431 -> 432 ;
433 [label=<person_age &le; 29.877<br/>gini = 0.085<br/>samples = 425<br/>value = [19, 406]<br/>class = Accepted>, fillcolor="#42a2e6"] ;
431 -> 433 ;
434 [label=<person_age &le; 22.015<br/>gini = 0.041<br/>samples = 284<br/>value = [6, 278]<br/>class = Accepted>, fillcolor="#3d9fe6"] ;
433 -> 434 ;
435 [label=<loan_int_rate &le; 15.275<br/>gini = 0.211<br/>samples = 25<br/>value = [3, 22]<br/>class = Accepted>, fillcolor="#54aae9"] ;
434 -> 435 ;
436 [label=<loan_int_rate &le; 15.095<br/>gini = 0.49<br/>samples = 7<br/>value = [3, 4]<br/>class = Accepted>, fillcolor="#cee6f8"] ;
435 -> 436 ;
437 [label=<gini = 0.0<br/>samples = 4<br/>value = [0, 4]<br/>class = Accepted>, fillcolor="#399de5"] ;
436 -> 437 ;
438 [label=<gini = 0.0<br/>samples = 3<br/>value = [3, 0]<br/>class = Refused>, fillcolor="#e58139"] ;
436 -> 438 ;
439 [label=<gini = 0.0<br/>samples = 18<br/>value = [0, 18]<br/>class = Accepted>, fillcolor="#399de5"] ;
435 -> 439 ;
440 [label=<person_gender &le; 0.008<br/>gini = 0.023<br/>samples = 259<br/>value = [3, 256]<br/>class = Accepted>, fillcolor="#3b9ee5"] ;
434 -> 440 ;
441 [label=<loan_int_rate &le; 15.255<br/>gini = 0.065<br/>samples = 89<br/>value = [3, 86]<br/>class = Accepted>, fillcolor="#40a0e6"] ;
440 -> 441 ;
442 [label=<gini = 0.18<br/>samples = 20<br/>value = [2, 18]<br/>class = Accepted>, fillcolor="#4fa8e8"] ;
441 -> 442 ;
443 [label=<gini = 0.029<br/>samples = 69<br/>value = [1, 68]<br/>class = Accepted>, fillcolor="#3c9ee5"] ;
441 -> 443 ;
444 [label=<gini = 0.0<br/>samples = 170<br/>value = [0, 170]<br/>class = Accepted>, fillcolor="#399de5"] ;
440 -> 444 ;
445 [label=<person_emp_exp &le; 5.007<br/>gini = 0.167<br/>samples = 141<br/>value = [13, 128]<br/>class = Accepted>, fillcolor="#4da7e8"] ;
433 -> 445 ;
446 [label=<loan_amnt &le; 5063.0<br/>gini = 0.49<br/>samples = 7<br/>value = [3, 4]<br/>class = Accepted>, fillcolor="#cee6f8"] ;
445 -> 446 ;
447 [label=<gini = 0.0<br/>samples = 1<br/>value = [1, 0]<br/>class = Refused>, fillcolor="#e58139"] ;
446 -> 447 ;
448 [label=<loan_percent_income &le; 0.09<br/>gini = 0.444<br/>samples = 6<br/>value = [2, 4]<br/>class = Accepted>, fillcolor="#9ccef2"] ;
446 -> 448 ;
449 [label=<gini = 0.0<br/>samples = 3<br/>value = [0, 3]<br/>class = Accepted>, fillcolor="#399de5"] ;
448 -> 449 ;
450 [label=<gini = 0.444<br/>samples = 3<br/>value = [2, 1]<br/>class = Refused>, fillcolor="#f2c09c"] ;
448 -> 450 ;
451 [label=<loan_amnt &le; 17808.5<br/>gini = 0.138<br/>samples = 134<br/>value = [10, 124]<br/>class = Accepted>, fillcolor="#49a5e7"] ;
445 -> 451 ;
452 [label=<person_income &le; 122677.0<br/>gini = 0.224<br/>samples = 78<br/>value = [10, 68]<br/>class = Accepted>, fillcolor="#56abe9"] ;
451 -> 452 ;
453 [label=<gini = 0.075<br/>samples = 51<br/>value = [2, 49]<br/>class = Accepted>, fillcolor="#41a1e6"] ;
452 -> 453 ;
454 [label=<gini = 0.417<br/>samples = 27<br/>value = [8, 19]<br/>class = Accepted>, fillcolor="#8cc6f0"] ;
452 -> 454 ;
455 [label=<gini = 0.0<br/>samples = 56<br/>value = [0, 56]<br/>class = Accepted>, fillcolor="#399de5"] ;
451 -> 455 ;
456 [label=<gini = 0.0<br/>samples = 1<br/>value = [1, 0]<br/>class = Refused>, fillcolor="#e58139"] ;
430 -> 456 ;
457 [label=<loan_percent_income &le; 0.24<br/>gini = 0.261<br/>samples = 28388<br/>value = [4375, 24013]<br/>class = Accepted>, fillcolor="#5dafea"] ;
1 -> 457 ;
458 [label=<loan_int_rate &le; 11.99<br/>gini = 0.367<br/>samples = 17937<br/>value = [4341, 13596]<br/>class = Accepted>, fillcolor="#78bced"] ;
457 -> 458 ;
459 [label=<home_RENT &le; 1.0<br/>gini = 0.488<br/>samples = 7128<br/>value = [3023, 4105]<br/>class = Accepted>, fillcolor="#cbe5f8"] ;
458 -> 459 ;
460 [label=<gini = 0.0<br/>samples = 1262<br/>value = [0, 1262]<br/>class = Accepted>, fillcolor="#399de5"] ;
459 -> 460 ;
461 [label=<person_income &le; 42252.0<br/>gini = 0.5<br/>samples = 5866<br/>value = [3023, 2843]<br/>class = Refused>, fillcolor="#fdf7f3"] ;
459 -> 461 ;
462 [label=<person_income &le; 24479.0<br/>gini = 0.38<br/>samples = 2194<br/>value = [560, 1634]<br/>class = Accepted>, fillcolor="#7dbfee"] ;
461 -> 462 ;
463 [label=<loan_percent_income &le; 0.11<br/>gini = 0.088<br/>samples = 844<br/>value = [39, 805]<br/>class = Accepted>, fillcolor="#43a2e6"] ;
462 -> 463 ;
464 [label=<person_age &le; 27.073<br/>gini = 0.484<br/>samples = 78<br/>value = [32, 46]<br/>class = Accepted>, fillcolor="#c3e1f7"] ;
463 -> 464 ;
465 [label=<credit_score &le; 571.674<br/>gini = 0.438<br/>samples = 34<br/>value = [23, 11]<br/>class = Refused>, fillcolor="#f1bd98"] ;
464 -> 465 ;
466 [label=<gini = 0.0<br/>samples = 4<br/>value = [0, 4]<br/>class = Accepted>, fillcolor="#399de5"] ;
465 -> 466 ;
467 [label=<credit_score &le; 654.906<br/>gini = 0.358<br/>samples = 30<br/>value = [23, 7]<br/>class = Refused>, fillcolor="#eda775"] ;
465 -> 467 ;
468 [label=<credit_score &le; 636.5<br/>gini = 0.49<br/>samples = 14<br/>value = [8, 6]<br/>class = Refused>, fillcolor="#f8e0ce"] ;
467 -> 468 ;
469 [label=<gini = 0.32<br/>samples = 10<br/>value = [8, 2]<br/>class = Refused>, fillcolor="#eca06a"] ;
468 -> 469 ;
470 [label=<gini = 0.0<br/>samples = 4<br/>value = [0, 4]<br/>class = Accepted>, fillcolor="#399de5"] ;
468 -> 470 ;
471 [label=<loan_amnt &le; 1050.0<br/>gini = 0.117<br/>samples = 16<br/>value = [15, 1]<br/>class = Refused>, fillcolor="#e78946"] ;
467 -> 471 ;
472 [label=<gini = 0.0<br/>samples = 1<br/>value = [0, 1]<br/>class = Accepted>, fillcolor="#399de5"] ;
471 -> 472 ;
473 [label=<gini = 0.0<br/>samples = 15<br/>value = [15, 0]<br/>class = Refused>, fillcolor="#e58139"] ;
471 -> 473 ;
474 [label=<person_income &le; 18656.0<br/>gini = 0.325<br/>samples = 44<br/>value = [9, 35]<br/>class = Accepted>, fillcolor="#6cb6ec"] ;
464 -> 474 ;
475 [label=<person_income &le; 15409.733<br/>gini = 0.5<br/>samples = 12<br/>value = [6, 6]<br/>class = Refused>, fillcolor="#ffffff"] ;
474 -> 475 ;
476 [label=<loan_int_rate &le; 11.655<br/>gini = 0.245<br/>samples = 7<br/>value = [1, 6]<br/>class = Accepted>, fillcolor="#5aade9"] ;
475 -> 476 ;
477 [label=<gini = 0.0<br/>samples = 6<br/>value = [0, 6]<br/>class = Accepted>, fillcolor="#399de5"] ;
476 -> 477 ;
478 [label=<gini = 0.0<br/>samples = 1<br/>value = [1, 0]<br/>class = Refused>, fillcolor="#e58139"] ;
476 -> 478 ;
479 [label=<gini = 0.0<br/>samples = 5<br/>value = [5, 0]<br/>class = Refused>, fillcolor="#e58139"] ;
475 -> 479 ;
480 [label=<loan_percent_income &le; 0.035<br/>gini = 0.17<br/>samples = 32<br/>value = [3, 29]<br/>class = Accepted>, fillcolor="#4da7e8"] ;
474 -> 480 ;
481 [label=<gini = 0.0<br/>samples = 1<br/>value = [1, 0]<br/>class = Refused>, fillcolor="#e58139"] ;
480 -> 481 ;
482 [label=<intent_VENTURE &le; 0.5<br/>gini = 0.121<br/>samples = 31<br/>value = [2, 29]<br/>class = Accepted>, fillcolor="#47a4e7"] ;
480 -> 482 ;
483 [label=<gini = 0.064<br/>samples = 30<br/>value = [1, 29]<br/>class = Accepted>, fillcolor="#40a0e6"] ;
482 -> 483 ;
484 [label=<gini = 0.0<br/>samples = 1<br/>value = [1, 0]<br/>class = Refused>, fillcolor="#e58139"] ;
482 -> 484 ;
485 [label=<loan_percent_income &le; 0.12<br/>gini = 0.018<br/>samples = 766<br/>value = [7, 759]<br/>class = Accepted>, fillcolor="#3b9ee5"] ;
463 -> 485 ;
486 [label=<credit_score &le; 672.786<br/>gini = 0.258<br/>samples = 46<br/>value = [7, 39]<br/>class = Accepted>, fillcolor="#5dafea"] ;
485 -> 486 ;
487 [label=<loan_int_rate &le; 8.151<br/>gini = 0.05<br/>samples = 39<br/>value = [1, 38]<br/>class = Accepted>, fillcolor="#3ea0e6"] ;
486 -> 487 ;
488 [label=<loan_amnt &le; 2637.5<br/>gini = 0.32<br/>samples = 5<br/>value = [1, 4]<br/>class = Accepted>, fillcolor="#6ab6ec"] ;
487 -> 488 ;
489 [label=<gini = 0.0<br/>samples = 4<br/>value = [0, 4]<br/>class = Accepted>, fillcolor="#399de5"] ;
488 -> 489 ;
490 [label=<gini = 0.0<br/>samples = 1<br/>value = [1, 0]<br/>class = Refused>, fillcolor="#e58139"] ;
488 -> 490 ;
491 [label=<gini = 0.0<br/>samples = 34<br/>value = [0, 34]<br/>class = Accepted>, fillcolor="#399de5"] ;
487 -> 491 ;
492 [label=<intent_EDUCATION &le; 0.5<br/>gini = 0.245<br/>samples = 7<br/>value = [6, 1]<br/>class = Refused>, fillcolor="#e9965a"] ;
486 -> 492 ;
493 [label=<gini = 0.0<br/>samples = 6<br/>value = [6, 0]<br/>class = Refused>, fillcolor="#e58139"] ;
492 -> 493 ;
494 [label=<gini = 0.0<br/>samples = 1<br/>value = [0, 1]<br/>class = Accepted>, fillcolor="#399de5"] ;
492 -> 494 ;
495 [label=<gini = 0.0<br/>samples = 720<br/>value = [0, 720]<br/>class = Accepted>, fillcolor="#399de5"] ;
485 -> 495 ;
496 [label=<intent_HOMEIMPROVEMENT &le; 0.003<br/>gini = 0.474<br/>samples = 1350<br/>value = [521, 829]<br/>class = Accepted>, fillcolor="#b5dbf5"] ;
462 -> 496 ;
497 [label=<loan_int_rate &le; 7.89<br/>gini = 0.5<br/>samples = 1062<br/>value = [516, 546]<br/>class = Accepted>, fillcolor="#f4fafe"] ;
496 -> 497 ;
498 [label=<loan_amnt &le; 8937.5<br/>gini = 0.329<br/>samples = 193<br/>value = [153, 40]<br/>class = Refused>, fillcolor="#eca26d"] ;
497 -> 498 ;
499 [label=<loan_amnt &le; 3800.0<br/>gini = 0.284<br/>samples = 181<br/>value = [150, 31]<br/>class = Refused>, fillcolor="#ea9b62"] ;
498 -> 499 ;
500 [label=<credit_score &le; 613.947<br/>gini = 0.444<br/>samples = 60<br/>value = [40, 20]<br/>class = Refused>, fillcolor="#f2c09c"] ;
499 -> 500 ;
501 [label=<gini = 0.457<br/>samples = 17<br/>value = [6, 11]<br/>class = Accepted>, fillcolor="#a5d2f3"] ;
500 -> 501 ;
502 [label=<gini = 0.331<br/>samples = 43<br/>value = [34, 9]<br/>class = Refused>, fillcolor="#eca26d"] ;
500 -> 502 ;
503 [label=<loan_amnt &le; 5225.0<br/>gini = 0.165<br/>samples = 121<br/>value = [110, 11]<br/>class = Refused>, fillcolor="#e88e4d"] ;
499 -> 503 ;
504 [label=<gini = 0.0<br/>samples = 58<br/>value = [58, 0]<br/>class = Refused>, fillcolor="#e58139"] ;
503 -> 504 ;
505 [label=<gini = 0.288<br/>samples = 63<br/>value = [52, 11]<br/>class = Refused>, fillcolor="#ea9c63"] ;
503 -> 505 ;
506 [label=<cb_person_cred_hist_length &le; 3.728<br/>gini = 0.375<br/>samples = 12<br/>value = [3, 9]<br/>class = Accepted>, fillcolor="#7bbeee"] ;
498 -> 506 ;
507 [label=<gini = 0.0<br/>samples = 8<br/>value = [0, 8]<br/>class = Accepted>, fillcolor="#399de5"] ;
506 -> 507 ;
508 [label=<credit_score &le; 638.5<br/>gini = 0.375<br/>samples = 4<br/>value = [3, 1]<br/>class = Refused>, fillcolor="#eeab7b"] ;
506 -> 508 ;
509 [label=<gini = 0.0<br/>samples = 1<br/>value = [0, 1]<br/>class = Accepted>, fillcolor="#399de5"] ;
508 -> 509 ;
510 [label=<gini = 0.0<br/>samples = 3<br/>value = [3, 0]<br/>class = Refused>, fillcolor="#e58139"] ;
508 -> 510 ;
511 [label=<intent_VENTURE &le; 0.98<br/>gini = 0.486<br/>samples = 869<br/>value = [363, 506]<br/>class = Accepted>, fillcolor="#c7e3f8"] ;
497 -> 511 ;
512 [label=<credit_score &le; 687.927<br/>gini = 0.468<br/>samples = 794<br/>value = [297.0, 497.0]<br/>class = Accepted>, fillcolor="#afd8f5"] ;
511 -> 512 ;
513 [label=<person_income &le; 35674.5<br/>gini = 0.444<br/>samples = 709<br/>value = [236, 473]<br/>class = Accepted>, fillcolor="#9ccef2"] ;
512 -> 513 ;
514 [label=<gini = 0.499<br/>samples = 267<br/>value = [127, 140]<br/>class = Accepted>, fillcolor="#edf6fd"] ;
513 -> 514 ;
515 [label=<gini = 0.372<br/>samples = 442<br/>value = [109, 333]<br/>class = Accepted>, fillcolor="#7abdee"] ;
513 -> 515 ;
516 [label=<loan_amnt &le; 3150.0<br/>gini = 0.405<br/>samples = 85<br/>value = [61, 24]<br/>class = Refused>, fillcolor="#efb387"] ;
512 -> 516 ;
517 [label=<gini = 0.472<br/>samples = 21<br/>value = [8, 13]<br/>class = Accepted>, fillcolor="#b3d9f5"] ;
516 -> 517 ;
518 [label=<gini = 0.285<br/>samples = 64<br/>value = [53, 11]<br/>class = Refused>, fillcolor="#ea9b62"] ;
516 -> 518 ;
519 [label=<loan_int_rate &le; 11.0<br/>gini = 0.211<br/>samples = 75<br/>value = [66, 9]<br/>class = Refused>, fillcolor="#e99254"] ;
511 -> 519 ;
520 [label=<gini = 0.0<br/>samples = 45<br/>value = [45, 0]<br/>class = Refused>, fillcolor="#e58139"] ;
519 -> 520 ;
521 [label=<loan_int_rate &le; 11.04<br/>gini = 0.42<br/>samples = 30<br/>value = [21, 9]<br/>class = Refused>, fillcolor="#f0b78e"] ;
519 -> 521 ;
522 [label=<gini = 0.49<br/>samples = 14<br/>value = [6, 8]<br/>class = Accepted>, fillcolor="#cee6f8"] ;
521 -> 522 ;
523 [label=<gini = 0.117<br/>samples = 16<br/>value = [15, 1]<br/>class = Refused>, fillcolor="#e78946"] ;
521 -> 523 ;
524 [label=<person_income &le; 25061.22<br/>gini = 0.034<br/>samples = 288<br/>value = [5, 283]<br/>class = Accepted>, fillcolor="#3c9fe5"] ;
496 -> 524 ;
525 [label=<intent_EDUCATION &le; 0.455<br/>gini = 0.444<br/>samples = 3<br/>value = [2, 1]<br/>class = Refused>, fillcolor="#f2c09c"] ;
524 -> 525 ;
526 [label=<gini = 0.0<br/>samples = 2<br/>value = [2, 0]<br/>class = Refused>, fillcolor="#e58139"] ;
525 -> 526 ;
527 [label=<gini = 0.0<br/>samples = 1<br/>value = [0, 1]<br/>class = Accepted>, fillcolor="#399de5"] ;
525 -> 527 ;
528 [label=<credit_score &le; 687.154<br/>gini = 0.021<br/>samples = 285<br/>value = [3, 282]<br/>class = Accepted>, fillcolor="#3b9ee5"] ;
524 -> 528 ;
529 [label=<person_income &le; 29803.156<br/>gini = 0.007<br/>samples = 270<br/>value = [1, 269]<br/>class = Accepted>, fillcolor="#3a9de5"] ;
528 -> 529 ;
530 [label=<credit_score &le; 622.5<br/>gini = 0.087<br/>samples = 22<br/>value = [1, 21]<br/>class = Accepted>, fillcolor="#42a2e6"] ;
529 -> 530 ;
531 [label=<gini = 0.0<br/>samples = 1<br/>value = [1, 0]<br/>class = Refused>, fillcolor="#e58139"] ;
530 -> 531 ;
532 [label=<gini = 0.0<br/>samples = 21<br/>value = [0, 21]<br/>class = Accepted>, fillcolor="#399de5"] ;
530 -> 532 ;
533 [label=<gini = 0.0<br/>samples = 248<br/>value = [0, 248]<br/>class = Accepted>, fillcolor="#399de5"] ;
529 -> 533 ;
534 [label=<cb_person_cred_hist_length &le; 10.0<br/>gini = 0.231<br/>samples = 15<br/>value = [2, 13]<br/>class = Accepted>, fillcolor="#57ace9"] ;
528 -> 534 ;
535 [label=<credit_score &le; 689.0<br/>gini = 0.133<br/>samples = 14<br/>value = [1, 13]<br/>class = Accepted>, fillcolor="#48a5e7"] ;
534 -> 535 ;
536 [label=<gini = 0.0<br/>samples = 1<br/>value = [1, 0]<br/>class = Refused>, fillcolor="#e58139"] ;
535 -> 536 ;
537 [label=<gini = 0.0<br/>samples = 13<br/>value = [0, 13]<br/>class = Accepted>, fillcolor="#399de5"] ;
535 -> 537 ;
538 [label=<gini = 0.0<br/>samples = 1<br/>value = [1, 0]<br/>class = Refused>, fillcolor="#e58139"] ;
534 -> 538 ;
539 [label=<person_income &le; 72623.156<br/>gini = 0.442<br/>samples = 3672<br/>value = [2463, 1209]<br/>class = Refused>, fillcolor="#f2bf9a"] ;
461 -> 539 ;
540 [label=<intent_HOMEIMPROVEMENT &le; 0.001<br/>gini = 0.49<br/>samples = 2194<br/>value = [1255, 939]<br/>class = Refused>, fillcolor="#f8dfcd"] ;
539 -> 540 ;
541 [label=<loan_int_rate &le; 9.633<br/>gini = 0.466<br/>samples = 1902<br/>value = [1199, 703]<br/>class = Refused>, fillcolor="#f4cbad"] ;
540 -> 541 ;
542 [label=<intent_DEBTCONSOLIDATION &le; 0.038<br/>gini = 0.32<br/>samples = 651<br/>value = [521, 130]<br/>class = Refused>, fillcolor="#eba06a"] ;
541 -> 542 ;
543 [label=<intent_PERSONAL &le; 0.014<br/>gini = 0.247<br/>samples = 499<br/>value = [427, 72]<br/>class = Refused>, fillcolor="#e9965a"] ;
542 -> 543 ;
544 [label=<credit_score &le; 601.5<br/>gini = 0.193<br/>samples = 389<br/>value = [347, 42]<br/>class = Refused>, fillcolor="#e89051"] ;
543 -> 544 ;
545 [label=<gini = 0.406<br/>samples = 60<br/>value = [43, 17]<br/>class = Refused>, fillcolor="#efb387"] ;
544 -> 545 ;
546 [label=<gini = 0.14<br/>samples = 329<br/>value = [304, 25]<br/>class = Refused>, fillcolor="#e78b49"] ;
544 -> 546 ;
547 [label=<intent_PERSONAL &le; 0.99<br/>gini = 0.397<br/>samples = 110<br/>value = [80.0, 30.0]<br/>class = Refused>, fillcolor="#efb083"] ;
543 -> 547 ;
548 [label=<gini = 0.0<br/>samples = 13<br/>value = [0, 13]<br/>class = Accepted>, fillcolor="#399de5"] ;
547 -> 548 ;
549 [label=<gini = 0.289<br/>samples = 97<br/>value = [80, 17]<br/>class = Refused>, fillcolor="#eb9c63"] ;
547 -> 549 ;
550 [label=<intent_DEBTCONSOLIDATION &le; 0.995<br/>gini = 0.472<br/>samples = 152<br/>value = [94, 58]<br/>class = Refused>, fillcolor="#f5cfb3"] ;
542 -> 550 ;
551 [label=<gini = 0.0<br/>samples = 26<br/>value = [0, 26]<br/>class = Accepted>, fillcolor="#399de5"] ;
550 -> 551 ;
552 [label=<credit_score &le; 609.596<br/>gini = 0.379<br/>samples = 126<br/>value = [94, 32]<br/>class = Refused>, fillcolor="#eeac7c"] ;
550 -> 552 ;
553 [label=<gini = 0.483<br/>samples = 22<br/>value = [9, 13]<br/>class = Accepted>, fillcolor="#c2e1f7"] ;
552 -> 553 ;
554 [label=<gini = 0.299<br/>samples = 104<br/>value = [85, 19]<br/>class = Refused>, fillcolor="#eb9d65"] ;
552 -> 554 ;
555 [label=<intent_VENTURE &le; 0.954<br/>gini = 0.496<br/>samples = 1251<br/>value = [678, 573]<br/>class = Refused>, fillcolor="#fbebe0"] ;
541 -> 555 ;
556 [label=<loan_int_rate &le; 11.01<br/>gini = 0.5<br/>samples = 1107<br/>value = [544, 563]<br/>class = Accepted>, fillcolor="#f8fcfe"] ;
555 -> 556 ;
557 [label=<intent_DEBTCONSOLIDATION &le; 0.007<br/>gini = 0.489<br/>samples = 600<br/>value = [345, 255]<br/>class = Refused>, fillcolor="#f8decb"] ;
556 -> 557 ;
558 [label=<gini = 0.468<br/>samples = 442<br/>value = [277, 165]<br/>class = Refused>, fillcolor="#f4ccaf"] ;
557 -> 558 ;
559 [label=<gini = 0.49<br/>samples = 158<br/>value = [68, 90]<br/>class = Accepted>, fillcolor="#cfe7f9"] ;
557 -> 559 ;
560 [label=<person_gender &le; 0.011<br/>gini = 0.477<br/>samples = 507<br/>value = [199, 308]<br/>class = Accepted>, fillcolor="#b9dcf6"] ;
556 -> 560 ;
561 [label=<gini = 0.494<br/>samples = 170<br/>value = [94, 76]<br/>class = Refused>, fillcolor="#fae7d9"] ;
560 -> 561 ;
562 [label=<gini = 0.429<br/>samples = 337<br/>value = [105, 232]<br/>class = Accepted>, fillcolor="#93c9f1"] ;
560 -> 562 ;
563 [label=<cb_person_cred_hist_length &le; 2.5<br/>gini = 0.129<br/>samples = 144<br/>value = [134, 10]<br/>class = Refused>, fillcolor="#e78a48"] ;
555 -> 563 ;
564 [label=<person_income &le; 68535.5<br/>gini = 0.32<br/>samples = 25<br/>value = [20, 5]<br/>class = Refused>, fillcolor="#eca06a"] ;
563 -> 564 ;
565 [label=<gini = 0.227<br/>samples = 23<br/>value = [20, 3]<br/>class = Refused>, fillcolor="#e99457"] ;
564 -> 565 ;
566 [label=<gini = 0.0<br/>samples = 2<br/>value = [0, 2]<br/>class = Accepted>, fillcolor="#399de5"] ;
564 -> 566 ;
567 [label=<person_income &le; 44090.0<br/>gini = 0.081<br/>samples = 119<br/>value = [114, 5]<br/>class = Refused>, fillcolor="#e68742"] ;
563 -> 567 ;
568 [label=<gini = 0.346<br/>samples = 9<br/>value = [7, 2]<br/>class = Refused>, fillcolor="#eca572"] ;
567 -> 568 ;
569 [label=<gini = 0.053<br/>samples = 110<br/>value = [107, 3]<br/>class = Refused>, fillcolor="#e6853f"] ;
567 -> 569 ;
570 [label=<person_income &le; 60418.5<br/>gini = 0.31<br/>samples = 292<br/>value = [56, 236]<br/>class = Accepted>, fillcolor="#68b4eb"] ;
540 -> 570 ;
571 [label=<loan_amnt &le; 3446.0<br/>gini = 0.011<br/>samples = 175<br/>value = [1, 174]<br/>class = Accepted>, fillcolor="#3a9ee5"] ;
570 -> 571 ;
572 [label=<loan_amnt &le; 3313.259<br/>gini = 0.051<br/>samples = 38<br/>value = [1, 37]<br/>class = Accepted>, fillcolor="#3ea0e6"] ;
571 -> 572 ;
573 [label=<gini = 0.0<br/>samples = 37<br/>value = [0, 37]<br/>class = Accepted>, fillcolor="#399de5"] ;
572 -> 573 ;
574 [label=<gini = 0.0<br/>samples = 1<br/>value = [1, 0]<br/>class = Refused>, fillcolor="#e58139"] ;
572 -> 574 ;
575 [label=<gini = 0.0<br/>samples = 137<br/>value = [0, 137]<br/>class = Accepted>, fillcolor="#399de5"] ;
571 -> 575 ;
576 [label=<intent_HOMEIMPROVEMENT &le; 0.997<br/>gini = 0.498<br/>samples = 117<br/>value = [55, 62]<br/>class = Accepted>, fillcolor="#e9f4fc"] ;
570 -> 576 ;
577 [label=<gini = 0.0<br/>samples = 42<br/>value = [0, 42]<br/>class = Accepted>, fillcolor="#399de5"] ;
576 -> 577 ;
578 [label=<loan_amnt &le; 12375.0<br/>gini = 0.391<br/>samples = 75<br/>value = [55.0, 20.0]<br/>class = Refused>, fillcolor="#eeaf81"] ;
576 -> 578 ;
579 [label=<credit_score &le; 576.5<br/>gini = 0.337<br/>samples = 70<br/>value = [55, 15]<br/>class = Refused>, fillcolor="#eca36f"] ;
578 -> 579 ;
580 [label=<gini = 0.0<br/>samples = 3<br/>value = [0, 3]<br/>class = Accepted>, fillcolor="#399de5"] ;
579 -> 580 ;
581 [label=<gini = 0.294<br/>samples = 67<br/>value = [55, 12]<br/>class = Refused>, fillcolor="#eb9c64"] ;
579 -> 581 ;
582 [label=<gini = 0.0<br/>samples = 5<br/>value = [0, 5]<br/>class = Accepted>, fillcolor="#399de5"] ;
578 -> 582 ;
583 [label=<loan_int_rate &le; 11.005<br/>gini = 0.299<br/>samples = 1478<br/>value = [1208, 270]<br/>class = Refused>, fillcolor="#eb9d65"] ;
539 -> 583 ;
584 [label=<intent_VENTURE &le; 0.549<br/>gini = 0.193<br/>samples = 962<br/>value = [858, 104]<br/>class = Refused>, fillcolor="#e89051"] ;
583 -> 584 ;
585 [label=<intent_VENTURE &le; 0.023<br/>gini = 0.223<br/>samples = 812<br/>value = [708.0, 104.0]<br/>class = Refused>, fillcolor="#e99456"] ;
584 -> 585 ;
586 [label=<loan_int_rate &le; 7.5<br/>gini = 0.219<br/>samples = 809<br/>value = [708, 101]<br/>class = Refused>, fillcolor="#e99355"] ;
585 -> 586 ;
587 [label=<credit_score &le; 515.5<br/>gini = 0.079<br/>samples = 194<br/>value = [186, 8]<br/>class = Refused>, fillcolor="#e68642"] ;
586 -> 587 ;
588 [label=<gini = 0.0<br/>samples = 1<br/>value = [0, 1]<br/>class = Accepted>, fillcolor="#399de5"] ;
587 -> 588 ;
589 [label=<gini = 0.07<br/>samples = 193<br/>value = [186.0, 7.0]<br/>class = Refused>, fillcolor="#e68640"] ;
587 -> 589 ;
590 [label=<loan_percent_income &le; 0.164<br/>gini = 0.257<br/>samples = 615<br/>value = [522, 93]<br/>class = Refused>, fillcolor="#ea975c"] ;
586 -> 590 ;
591 [label=<gini = 0.224<br/>samples = 528<br/>value = [460, 68]<br/>class = Refused>, fillcolor="#e99456"] ;
590 -> 591 ;
592 [label=<gini = 0.41<br/>samples = 87<br/>value = [62, 25]<br/>class = Refused>, fillcolor="#efb489"] ;
590 -> 592 ;
593 [label=<gini = 0.0<br/>samples = 3<br/>value = [0, 3]<br/>class = Accepted>, fillcolor="#399de5"] ;
585 -> 593 ;
594 [label=<gini = 0.0<br/>samples = 150<br/>value = [150, 0]<br/>class = Refused>, fillcolor="#e58139"] ;
584 -> 594 ;
595 [label=<intent_DEBTCONSOLIDATION &le; 0.004<br/>gini = 0.436<br/>samples = 516<br/>value = [350, 166]<br/>class = Refused>, fillcolor="#f1bd97"] ;
583 -> 595 ;
596 [label=<credit_score &le; 566.505<br/>gini = 0.377<br/>samples = 397<br/>value = [297, 100]<br/>class = Refused>, fillcolor="#eeab7c"] ;
595 -> 596 ;
597 [label=<cb_person_cred_hist_length &le; 3.5<br/>gini = 0.454<br/>samples = 23<br/>value = [8, 15]<br/>class = Accepted>, fillcolor="#a3d1f3"] ;
596 -> 597 ;
598 [label=<person_emp_exp &le; 3.0<br/>gini = 0.278<br/>samples = 6<br/>value = [5, 1]<br/>class = Refused>, fillcolor="#ea9a61"] ;
597 -> 598 ;
599 [label=<gini = 0.0<br/>samples = 5<br/>value = [5, 0]<br/>class = Refused>, fillcolor="#e58139"] ;
598 -> 599 ;
600 [label=<gini = 0.0<br/>samples = 1<br/>value = [0, 1]<br/>class = Accepted>, fillcolor="#399de5"] ;
598 -> 600 ;
601 [label=<person_emp_exp &le; 12.0<br/>gini = 0.291<br/>samples = 17<br/>value = [3, 14]<br/>class = Accepted>, fillcolor="#63b2eb"] ;
597 -> 601 ;
602 [label=<gini = 0.124<br/>samples = 15<br/>value = [1, 14]<br/>class = Accepted>, fillcolor="#47a4e7"] ;
601 -> 602 ;
603 [label=<gini = 0.0<br/>samples = 2<br/>value = [2, 0]<br/>class = Refused>, fillcolor="#e58139"] ;
601 -> 603 ;
604 [label=<person_education &le; 2.996<br/>gini = 0.351<br/>samples = 374<br/>value = [289, 85]<br/>class = Refused>, fillcolor="#eda673"] ;
596 -> 604 ;
605 [label=<person_education &le; 2.016<br/>gini = 0.426<br/>samples = 198<br/>value = [137, 61]<br/>class = Refused>, fillcolor="#f1b991"] ;
604 -> 605 ;
606 [label=<gini = 0.399<br/>samples = 189<br/>value = [137, 52]<br/>class = Refused>, fillcolor="#efb184"] ;
605 -> 606 ;
607 [label=<gini = 0.0<br/>samples = 9<br/>value = [0, 9]<br/>class = Accepted>, fillcolor="#399de5"] ;
605 -> 607 ;
608 [label=<loan_percent_income &le; 0.185<br/>gini = 0.236<br/>samples = 176<br/>value = [152, 24]<br/>class = Refused>, fillcolor="#e99558"] ;
604 -> 608 ;
609 [label=<gini = 0.193<br/>samples = 157<br/>value = [140, 17]<br/>class = Refused>, fillcolor="#e89051"] ;
608 -> 609 ;
610 [label=<gini = 0.465<br/>samples = 19<br/>value = [12, 7]<br/>class = Refused>, fillcolor="#f4caac"] ;
608 -> 610 ;
611 [label=<intent_DEBTCONSOLIDATION &le; 0.995<br/>gini = 0.494<br/>samples = 119<br/>value = [53, 66]<br/>class = Accepted>, fillcolor="#d8ecfa"] ;
595 -> 611 ;
612 [label=<gini = 0.0<br/>samples = 35<br/>value = [0, 35]<br/>class = Accepted>, fillcolor="#399de5"] ;
611 -> 612 ;
613 [label=<loan_percent_income &le; 0.14<br/>gini = 0.466<br/>samples = 84<br/>value = [53, 31]<br/>class = Refused>, fillcolor="#f4cbad"] ;
611 -> 613 ;
614 [label=<person_income &le; 128937.0<br/>gini = 0.358<br/>samples = 60<br/>value = [46, 14]<br/>class = Refused>, fillcolor="#eda775"] ;
613 -> 614 ;
615 [label=<gini = 0.254<br/>samples = 47<br/>value = [40, 7]<br/>class = Refused>, fillcolor="#ea975c"] ;
614 -> 615 ;
616 [label=<gini = 0.497<br/>samples = 13<br/>value = [6, 7]<br/>class = Accepted>, fillcolor="#e3f1fb"] ;
614 -> 616 ;
617 [label=<loan_amnt &le; 21800.0<br/>gini = 0.413<br/>samples = 24<br/>value = [7, 17]<br/>class = Accepted>, fillcolor="#8bc5f0"] ;
613 -> 617 ;
618 [label=<gini = 0.308<br/>samples = 21<br/>value = [4, 17]<br/>class = Accepted>, fillcolor="#68b4eb"] ;
617 -> 618 ;
619 [label=<gini = 0.0<br/>samples = 3<br/>value = [3, 0]<br/>class = Refused>, fillcolor="#e58139"] ;
617 -> 619 ;
620 [label=<loan_int_rate &le; 14.27<br/>gini = 0.214<br/>samples = 10809<br/>value = [1318, 9491]<br/>class = Accepted>, fillcolor="#54abe9"] ;
458 -> 620 ;
621 [label=<home_RENT &le; 1.0<br/>gini = 0.338<br/>samples = 4649<br/>value = [1002, 3647]<br/>class = Accepted>, fillcolor="#6fb8ec"] ;
620 -> 621 ;
622 [label=<gini = 0.0<br/>samples = 1105<br/>value = [0, 1105]<br/>class = Accepted>, fillcolor="#399de5"] ;
621 -> 622 ;
623 [label=<person_income &le; 48469.119<br/>gini = 0.406<br/>samples = 3544<br/>value = [1002, 2542]<br/>class = Accepted>, fillcolor="#87c4ef"] ;
621 -> 623 ;
624 [label=<intent_MEDICAL &le; 0.994<br/>gini = 0.269<br/>samples = 1852<br/>value = [297, 1555]<br/>class = Accepted>, fillcolor="#5fb0ea"] ;
623 -> 624 ;
625 [label=<intent_EDUCATION &le; 0.995<br/>gini = 0.222<br/>samples = 1600<br/>value = [203.0, 1397.0]<br/>class = Accepted>, fillcolor="#56abe9"] ;
624 -> 625 ;
626 [label=<intent_VENTURE &le; 0.996<br/>gini = 0.168<br/>samples = 1403<br/>value = [130, 1273]<br/>class = Accepted>, fillcolor="#4da7e8"] ;
625 -> 626 ;
627 [label=<intent_PERSONAL &le; 0.998<br/>gini = 0.127<br/>samples = 1290<br/>value = [88, 1202]<br/>class = Accepted>, fillcolor="#47a4e7"] ;
626 -> 627 ;
628 [label=<intent_DEBTCONSOLIDATION &le; 0.997<br/>gini = 0.074<br/>samples = 1125<br/>value = [43, 1082]<br/>class = Accepted>, fillcolor="#41a1e6"] ;
627 -> 628 ;
629 [label=<gini = 0.002<br/>samples = 934<br/>value = [1, 933]<br/>class = Accepted>, fillcolor="#399de5"] ;
628 -> 629 ;
630 [label=<gini = 0.343<br/>samples = 191<br/>value = [42, 149]<br/>class = Accepted>, fillcolor="#71b9ec"] ;
628 -> 630 ;
631 [label=<person_income &le; 28332.5<br/>gini = 0.397<br/>samples = 165<br/>value = [45, 120]<br/>class = Accepted>, fillcolor="#83c2ef"] ;
627 -> 631 ;
632 [label=<gini = 0.116<br/>samples = 65<br/>value = [4, 61]<br/>class = Accepted>, fillcolor="#46a3e7"] ;
631 -> 632 ;
633 [label=<gini = 0.484<br/>samples = 100<br/>value = [41, 59]<br/>class = Accepted>, fillcolor="#c3e1f7"] ;
631 -> 633 ;
634 [label=<person_income &le; 25299.0<br/>gini = 0.467<br/>samples = 113<br/>value = [42, 71]<br/>class = Accepted>, fillcolor="#aed7f4"] ;
626 -> 634 ;
635 [label=<cb_person_cred_hist_length &le; 8.5<br/>gini = 0.1<br/>samples = 38<br/>value = [2, 36]<br/>class = Accepted>, fillcolor="#44a2e6"] ;
634 -> 635 ;
636 [label=<gini = 0.0<br/>samples = 31<br/>value = [0, 31]<br/>class = Accepted>, fillcolor="#399de5"] ;
635 -> 636 ;
637 [label=<gini = 0.408<br/>samples = 7<br/>value = [2, 5]<br/>class = Accepted>, fillcolor="#88c4ef"] ;
635 -> 637 ;
638 [label=<person_income &le; 35685.5<br/>gini = 0.498<br/>samples = 75<br/>value = [40, 35]<br/>class = Refused>, fillcolor="#fcefe6"] ;
634 -> 638 ;
639 [label=<gini = 0.18<br/>samples = 20<br/>value = [18, 2]<br/>class = Refused>, fillcolor="#e88f4f"] ;
638 -> 639 ;
640 [label=<gini = 0.48<br/>samples = 55<br/>value = [22, 33]<br/>class = Accepted>, fillcolor="#bddef6"] ;
638 -> 640 ;
641 [label=<person_income &le; 23948.5<br/>gini = 0.466<br/>samples = 197<br/>value = [73, 124]<br/>class = Accepted>, fillcolor="#aed7f4"] ;
625 -> 641 ;
642 [label=<loan_percent_income &le; 0.115<br/>gini = 0.083<br/>samples = 46<br/>value = [2, 44]<br/>class = Accepted>, fillcolor="#42a1e6"] ;
641 -> 642 ;
643 [label=<loan_percent_income &le; 0.071<br/>gini = 0.5<br/>samples = 4<br/>value = [2, 2]<br/>class = Refused>, fillcolor="#ffffff"] ;
642 -> 643 ;
644 [label=<gini = 0.0<br/>samples = 2<br/>value = [0, 2]<br/>class = Accepted>, fillcolor="#399de5"] ;
643 -> 644 ;
645 [label=<gini = 0.0<br/>samples = 2<br/>value = [2, 0]<br/>class = Refused>, fillcolor="#e58139"] ;
643 -> 645 ;
646 [label=<gini = 0.0<br/>samples = 42<br/>value = [0, 42]<br/>class = Accepted>, fillcolor="#399de5"] ;
642 -> 646 ;
647 [label=<person_income &le; 34546.5<br/>gini = 0.498<br/>samples = 151<br/>value = [71, 80]<br/>class = Accepted>, fillcolor="#e9f4fc"] ;
641 -> 647 ;
648 [label=<loan_percent_income &le; 0.056<br/>gini = 0.26<br/>samples = 39<br/>value = [33, 6]<br/>class = Refused>, fillcolor="#ea985d"] ;
647 -> 648 ;
649 [label=<gini = 0.0<br/>samples = 3<br/>value = [0, 3]<br/>class = Accepted>, fillcolor="#399de5"] ;
648 -> 649 ;
650 [label=<gini = 0.153<br/>samples = 36<br/>value = [33, 3]<br/>class = Refused>, fillcolor="#e78c4b"] ;
648 -> 650 ;
651 [label=<credit_score &le; 672.5<br/>gini = 0.448<br/>samples = 112<br/>value = [38, 74]<br/>class = Accepted>, fillcolor="#9fcff2"] ;
647 -> 651 ;
652 [label=<gini = 0.361<br/>samples = 89<br/>value = [21, 68]<br/>class = Accepted>, fillcolor="#76bbed"] ;
651 -> 652 ;
653 [label=<gini = 0.386<br/>samples = 23<br/>value = [17, 6]<br/>class = Refused>, fillcolor="#eead7f"] ;
651 -> 653 ;
654 [label=<person_education &le; 3.937<br/>gini = 0.468<br/>samples = 252<br/>value = [94, 158]<br/>class = Accepted>, fillcolor="#afd7f4"] ;
624 -> 654 ;
655 [label=<cb_person_cred_hist_length &le; 14.5<br/>gini = 0.438<br/>samples = 219<br/>value = [71, 148]<br/>class = Accepted>, fillcolor="#98ccf1"] ;
654 -> 655 ;
656 [label=<person_income &le; 24047.0<br/>gini = 0.417<br/>samples = 209<br/>value = [62, 147]<br/>class = Accepted>, fillcolor="#8dc6f0"] ;
655 -> 656 ;
657 [label=<cb_person_cred_hist_length &le; 9.937<br/>gini = 0.074<br/>samples = 26<br/>value = [1, 25]<br/>class = Accepted>, fillcolor="#41a1e6"] ;
656 -> 657 ;
658 [label=<gini = 0.0<br/>samples = 25<br/>value = [0, 25]<br/>class = Accepted>, fillcolor="#399de5"] ;
657 -> 658 ;
659 [label=<gini = 0.0<br/>samples = 1<br/>value = [1, 0]<br/>class = Refused>, fillcolor="#e58139"] ;
657 -> 659 ;
660 [label=<person_income &le; 30436.493<br/>gini = 0.444<br/>samples = 183<br/>value = [61, 122]<br/>class = Accepted>, fillcolor="#9ccef2"] ;
656 -> 660 ;
661 [label=<gini = 0.245<br/>samples = 14<br/>value = [12, 2]<br/>class = Refused>, fillcolor="#e9965a"] ;
660 -> 661 ;
662 [label=<gini = 0.412<br/>samples = 169<br/>value = [49, 120]<br/>class = Accepted>, fillcolor="#8ac5f0"] ;
660 -> 662 ;
663 [label=<person_emp_exp &le; 29.0<br/>gini = 0.18<br/>samples = 10<br/>value = [9, 1]<br/>class = Refused>, fillcolor="#e88f4f"] ;
655 -> 663 ;
664 [label=<gini = 0.0<br/>samples = 8<br/>value = [8, 0]<br/>class = Refused>, fillcolor="#e58139"] ;
663 -> 664 ;
665 [label=<person_education &le; 2.0<br/>gini = 0.5<br/>samples = 2<br/>value = [1, 1]<br/>class = Refused>, fillcolor="#ffffff"] ;
663 -> 665 ;
666 [label=<gini = 0.0<br/>samples = 1<br/>value = [1, 0]<br/>class = Refused>, fillcolor="#e58139"] ;
665 -> 666 ;
667 [label=<gini = 0.0<br/>samples = 1<br/>value = [0, 1]<br/>class = Accepted>, fillcolor="#399de5"] ;
665 -> 667 ;
668 [label=<credit_score &le; 624.5<br/>gini = 0.422<br/>samples = 33<br/>value = [23, 10]<br/>class = Refused>, fillcolor="#f0b88f"] ;
654 -> 668 ;
669 [label=<gini = 0.0<br/>samples = 3<br/>value = [0, 3]<br/>class = Accepted>, fillcolor="#399de5"] ;
668 -> 669 ;
670 [label=<loan_int_rate &le; 13.95<br/>gini = 0.358<br/>samples = 30<br/>value = [23, 7]<br/>class = Refused>, fillcolor="#eda775"] ;
668 -> 670 ;
671 [label=<person_income &le; 47144.0<br/>gini = 0.252<br/>samples = 27<br/>value = [23, 4]<br/>class = Refused>, fillcolor="#ea975b"] ;
670 -> 671 ;
672 [label=<gini = 0.204<br/>samples = 26<br/>value = [23, 3]<br/>class = Refused>, fillcolor="#e89153"] ;
671 -> 672 ;
673 [label=<gini = 0.0<br/>samples = 1<br/>value = [0, 1]<br/>class = Accepted>, fillcolor="#399de5"] ;
671 -> 673 ;
674 [label=<gini = 0.0<br/>samples = 3<br/>value = [0, 3]<br/>class = Accepted>, fillcolor="#399de5"] ;
670 -> 674 ;
675 [label=<person_education &le; 2.998<br/>gini = 0.486<br/>samples = 1692<br/>value = [705.0, 987.0]<br/>class = Accepted>, fillcolor="#c6e3f8"] ;
623 -> 675 ;
676 [label=<person_education &le; 2.0<br/>gini = 0.441<br/>samples = 1004<br/>value = [329, 675]<br/>class = Accepted>, fillcolor="#9acdf2"] ;
675 -> 676 ;
677 [label=<person_education &le; 1.993<br/>gini = 0.485<br/>samples = 798<br/>value = [329.0, 469.0]<br/>class = Accepted>, fillcolor="#c4e2f7"] ;
676 -> 677 ;
678 [label=<person_education &le; 1.005<br/>gini = 0.442<br/>samples = 512<br/>value = [169, 343]<br/>class = Accepted>, fillcolor="#9bcdf2"] ;
677 -> 678 ;
679 [label=<intent_EDUCATION &le; 0.974<br/>gini = 0.498<br/>samples = 320<br/>value = [169, 151]<br/>class = Refused>, fillcolor="#fcf2ea"] ;
678 -> 679 ;
680 [label=<gini = 0.499<br/>samples = 267<br/>value = [129, 138]<br/>class = Accepted>, fillcolor="#f2f9fd"] ;
679 -> 680 ;
681 [label=<gini = 0.37<br/>samples = 53<br/>value = [40, 13]<br/>class = Refused>, fillcolor="#edaa79"] ;
679 -> 681 ;
682 [label=<gini = 0.0<br/>samples = 192<br/>value = [0, 192]<br/>class = Accepted>, fillcolor="#399de5"] ;
678 -> 682 ;
683 [label=<credit_score &le; 688.5<br/>gini = 0.493<br/>samples = 286<br/>value = [160, 126]<br/>class = Refused>, fillcolor="#f9e4d5"] ;
677 -> 683 ;
684 [label=<person_emp_exp &le; 0.003<br/>gini = 0.5<br/>samples = 248<br/>value = [127, 121]<br/>class = Refused>, fillcolor="#fef9f6"] ;
683 -> 684 ;
685 [label=<gini = 0.314<br/>samples = 41<br/>value = [33, 8]<br/>class = Refused>, fillcolor="#eba069"] ;
684 -> 685 ;
686 [label=<gini = 0.496<br/>samples = 207<br/>value = [94, 113]<br/>class = Accepted>, fillcolor="#deeffb"] ;
684 -> 686 ;
687 [label=<person_income &le; 54570.115<br/>gini = 0.229<br/>samples = 38<br/>value = [33, 5]<br/>class = Refused>, fillcolor="#e99457"] ;
683 -> 687 ;
688 [label=<gini = 0.48<br/>samples = 10<br/>value = [6, 4]<br/>class = Refused>, fillcolor="#f6d5bd"] ;
687 -> 688 ;
689 [label=<gini = 0.069<br/>samples = 28<br/>value = [27, 1]<br/>class = Refused>, fillcolor="#e68640"] ;
687 -> 689 ;
690 [label=<gini = 0.0<br/>samples = 206<br/>value = [0, 206]<br/>class = Accepted>, fillcolor="#399de5"] ;
676 -> 690 ;
691 [label=<intent_HOMEIMPROVEMENT &le; 0.023<br/>gini = 0.496<br/>samples = 688<br/>value = [376, 312]<br/>class = Refused>, fillcolor="#fbeadd"] ;
675 -> 691 ;
692 [label=<intent_MEDICAL &le; 0.027<br/>gini = 0.477<br/>samples = 552<br/>value = [335, 217]<br/>class = Refused>, fillcolor="#f6d3b9"] ;
691 -> 692 ;
693 [label=<intent_DEBTCONSOLIDATION &le; 0.009<br/>gini = 0.431<br/>samples = 394<br/>value = [270, 124]<br/>class = Refused>, fillcolor="#f1bb94"] ;
692 -> 693 ;
694 [label=<credit_score &le; 580.0<br/>gini = 0.368<br/>samples = 280<br/>value = [212, 68]<br/>class = Refused>, fillcolor="#eda979"] ;
693 -> 694 ;
695 [label=<gini = 0.463<br/>samples = 22<br/>value = [8, 14]<br/>class = Accepted>, fillcolor="#aad5f4"] ;
694 -> 695 ;
696 [label=<gini = 0.331<br/>samples = 258<br/>value = [204, 54]<br/>class = Refused>, fillcolor="#eca26d"] ;
694 -> 696 ;
697 [label=<person_gender &le; 0.036<br/>gini = 0.5<br/>samples = 114<br/>value = [58, 56]<br/>class = Refused>, fillcolor="#fefbf8"] ;
693 -> 697 ;
698 [label=<gini = 0.415<br/>samples = 51<br/>value = [36, 15]<br/>class = Refused>, fillcolor="#f0b58b"] ;
697 -> 698 ;
699 [label=<gini = 0.455<br/>samples = 63<br/>value = [22, 41]<br/>class = Accepted>, fillcolor="#a3d2f3"] ;
697 -> 699 ;
700 [label=<intent_MEDICAL &le; 0.979<br/>gini = 0.484<br/>samples = 158<br/>value = [65, 93]<br/>class = Accepted>, fillcolor="#c3e1f7"] ;
692 -> 700 ;
701 [label=<gini = 0.0<br/>samples = 40<br/>value = [0, 40]<br/>class = Accepted>, fillcolor="#399de5"] ;
700 -> 701 ;
702 [label=<person_income &le; 61704.5<br/>gini = 0.495<br/>samples = 118<br/>value = [65, 53]<br/>class = Refused>, fillcolor="#fae8da"] ;
700 -> 702 ;
703 [label=<gini = 0.295<br/>samples = 39<br/>value = [32, 7]<br/>class = Refused>, fillcolor="#eb9d64"] ;
702 -> 703 ;
704 [label=<gini = 0.486<br/>samples = 79<br/>value = [33, 46]<br/>class = Accepted>, fillcolor="#c7e3f8"] ;
702 -> 704 ;
705 [label=<intent_HOMEIMPROVEMENT &le; 0.99<br/>gini = 0.421<br/>samples = 136<br/>value = [41, 95]<br/>class = Accepted>, fillcolor="#8ec7f0"] ;
691 -> 705 ;
706 [label=<gini = 0.0<br/>samples = 47<br/>value = [0, 47]<br/>class = Accepted>, fillcolor="#399de5"] ;
705 -> 706 ;
707 [label=<person_income &le; 62120.0<br/>gini = 0.497<br/>samples = 89<br/>value = [41, 48]<br/>class = Accepted>, fillcolor="#e2f1fb"] ;
705 -> 707 ;
708 [label=<gini = 0.0<br/>samples = 18<br/>value = [0, 18]<br/>class = Accepted>, fillcolor="#399de5"] ;
707 -> 708 ;
709 [label=<loan_amnt &le; 7800.0<br/>gini = 0.488<br/>samples = 71<br/>value = [41, 30]<br/>class = Refused>, fillcolor="#f8ddca"] ;
707 -> 709 ;
710 [label=<gini = 0.188<br/>samples = 19<br/>value = [17, 2]<br/>class = Refused>, fillcolor="#e89050"] ;
709 -> 710 ;
711 [label=<gini = 0.497<br/>samples = 52<br/>value = [24, 28]<br/>class = Accepted>, fillcolor="#e3f1fb"] ;
709 -> 711 ;
712 [label=<intent_EDUCATION &le; 1.0<br/>gini = 0.097<br/>samples = 6160<br/>value = [316, 5844]<br/>class = Accepted>, fillcolor="#44a2e6"] ;
620 -> 712 ;
713 [label=<intent_VENTURE &le; 1.0<br/>gini = 0.075<br/>samples = 5780<br/>value = [224.0, 5556.0]<br/>class = Accepted>, fillcolor="#41a1e6"] ;
712 -> 713 ;
714 [label=<intent_PERSONAL &le; 1.0<br/>gini = 0.059<br/>samples = 5509<br/>value = [167, 5342]<br/>class = Accepted>, fillcolor="#3fa0e6"] ;
713 -> 714 ;
715 [label=<intent_HOMEIMPROVEMENT &le; 1.0<br/>gini = 0.036<br/>samples = 5053<br/>value = [93, 4960]<br/>class = Accepted>, fillcolor="#3d9fe5"] ;
714 -> 715 ;
716 [label=<intent_MEDICAL &le; 1.0<br/>gini = 0.026<br/>samples = 4643<br/>value = [62, 4581]<br/>class = Accepted>, fillcolor="#3c9ee5"] ;
715 -> 716 ;
717 [label=<intent_DEBTCONSOLIDATION &le; 1.0<br/>gini = 0.012<br/>samples = 3788<br/>value = [22, 3766]<br/>class = Accepted>, fillcolor="#3a9ee5"] ;
716 -> 717 ;
718 [label=<gini = 0.0<br/>samples = 3066<br/>value = [0, 3066]<br/>class = Accepted>, fillcolor="#399de5"] ;
717 -> 718 ;
719 [label=<loan_int_rate &le; 14.792<br/>gini = 0.059<br/>samples = 722<br/>value = [22, 700]<br/>class = Accepted>, fillcolor="#3fa0e6"] ;
717 -> 719 ;
720 [label=<gini = 0.151<br/>samples = 146<br/>value = [12, 134]<br/>class = Accepted>, fillcolor="#4ba6e7"] ;
719 -> 720 ;
721 [label=<gini = 0.034<br/>samples = 576<br/>value = [10, 566]<br/>class = Accepted>, fillcolor="#3c9fe5"] ;
719 -> 721 ;
722 [label=<person_emp_exp &le; 38.276<br/>gini = 0.089<br/>samples = 855<br/>value = [40, 815]<br/>class = Accepted>, fillcolor="#43a2e6"] ;
716 -> 722 ;
723 [label=<person_income &le; 61217.5<br/>gini = 0.085<br/>samples = 853<br/>value = [38, 815]<br/>class = Accepted>, fillcolor="#42a2e6"] ;
722 -> 723 ;
724 [label=<gini = 0.128<br/>samples = 451<br/>value = [31.0, 420.0]<br/>class = Accepted>, fillcolor="#48a4e7"] ;
723 -> 724 ;
725 [label=<gini = 0.034<br/>samples = 402<br/>value = [7, 395]<br/>class = Accepted>, fillcolor="#3d9fe5"] ;
723 -> 725 ;
726 [label=<gini = 0.0<br/>samples = 2<br/>value = [2, 0]<br/>class = Refused>, fillcolor="#e58139"] ;
722 -> 726 ;
727 [label=<person_income &le; 66453.0<br/>gini = 0.14<br/>samples = 410<br/>value = [31, 379]<br/>class = Accepted>, fillcolor="#49a5e7"] ;
715 -> 727 ;
728 [label=<credit_score &le; 705.094<br/>gini = 0.015<br/>samples = 263<br/>value = [2, 261]<br/>class = Accepted>, fillcolor="#3b9ee5"] ;
727 -> 728 ;
729 [label=<loan_percent_income &le; 0.035<br/>gini = 0.008<br/>samples = 257<br/>value = [1, 256]<br/>class = Accepted>, fillcolor="#3a9de5"] ;
728 -> 729 ;
730 [label=<gini = 0.219<br/>samples = 8<br/>value = [1, 7]<br/>class = Accepted>, fillcolor="#55abe9"] ;
729 -> 730 ;
731 [label=<gini = 0.0<br/>samples = 249<br/>value = [0, 249]<br/>class = Accepted>, fillcolor="#399de5"] ;
729 -> 731 ;
732 [label=<person_income &le; 55859.5<br/>gini = 0.278<br/>samples = 6<br/>value = [1, 5]<br/>class = Accepted>, fillcolor="#61b1ea"] ;
728 -> 732 ;
733 [label=<gini = 0.0<br/>samples = 5<br/>value = [0, 5]<br/>class = Accepted>, fillcolor="#399de5"] ;
732 -> 733 ;
734 [label=<gini = 0.0<br/>samples = 1<br/>value = [1, 0]<br/>class = Refused>, fillcolor="#e58139"] ;
732 -> 734 ;
